{"learner":{"attributes":{"best_iteration":"119","best_score":"0.7556441173782892","scikit_learn":"{\"_estimator_type\": \"regressor\"}"},"feature_names":["lat","lon","month_sin","month_cos","doy_sin","doy_cos","day_of_month","week_of_year","precip_lag1","precip_lag3","precip_lag7","precip_lag14","precip_lag30","precip_roll7","precip_roll30"],"feature_types":["float","float","float","float","float","float","int","int","float","float","float","float","float","float","float"],"gradient_booster":{"model":{"cats":{"enc":[],"feature_segments":[],"sorted_idx":[]},"gbtree_model_param":{"num_parallel_tree":"1","num_trees":"170"},"iteration_indptr":[0,1,2,3,4,5,6,7,8,9,10,11,12,13,14,15,16,17,18,19,20,21,22,23,24,25,26,27,28,29,30,31,32,33,34,35,36,37,38,39,40,41,42,43,44,45,46,47,48,49,50,51,52,53,54,55,56,57,58,59,60,61,62,63,64,65,66,67,68,69,70,71,72,73,74,75,76,77,78,79,80,81,82,83,84,85,86,87,88,89,90,91,92,93,94,95,96,97,98,99,100,101,102,103,104,105,106,107,108,109,110,111,112,113,114,115,116,117,118,119,120,121,122,123,124,125,126,127,128,129,130,131,132,133,134,135,136,137,138,139,140,141,142,143,144,145,146,147,148,149,150,151,152,153,154,155,156,157,158,159,160,161,162,163,164,165,166,167,168,169,170],"tree_info":[0,0,0,0,0,0,0,0,0,0,0,0,0,0,0,0,0,0,0,0,0,0,0,0,0,0,0,0,0,0,0,0,0,0,0,0,0,0,0,0,0,0,0,0,0,0,0,0,0,0,0,0,0,0,0,0,0,0,0,0,0,0,0,0,0,0,0,0,0,0,0,0,0,0,0,0,0,0,0,0,0,0,0,0,0,0,0,0,0,0,0,0,0,0,0,0,0,0,0,0,0,0,0,0,0,0,0,0,0,0,0,0,0,0,0,0,0,0,0,0,0,0,0,0,0,0,0,0,0,0,0,0,0,0,0,0,0,0,0,0,0,0,0,0,0,0,0,0,0,0,0,0,0,0,0,0,0,0,0,0,0,0,0,0,0,0,0,0,0,0],"trees":[{"base_weights":[-2.5245606E-4,-1.4198472E-1,6.2268776E-1,-1.8909754E-1,8.1398375E-2,4.0893304E-1,9.0865326E-1,-4.089819E-3,-2.017138E-1,4.201335E-1,5.6969903E-2,7.146473E-1,3.5701028E-1,1.0573024E0,5.2071524E-1,-8.189119E-3,9.496631E-1,-2.50781E-1,-1.7856748E-1,5.7265794E-1,2.6249674E-1,1.7209317E-1,1.3255156E-2,8.721123E-1,5.3805083E-1,2.8131068E-1,4.6366236E-1,9.3858325E-1,1.3399785E0,3.293359E-1,7.642732E-1,2.4459096E-2,-1.0728279E-1,5.3342885E-1,2.0756333E0,-2.0006563E-1,-2.7061892E-1,-1.6673857E-1,-2.305223E-1,6.1586463E-1,8.899744E-2,2.987568E-1,-5.7704106E-2,2.3010544E-1,7.174969E-2,-4.227318E-2,8.6123526E-2,1.6488016E0,8.283114E-1,3.9415348E-1,6.9505334E-1,5.6385607E-1,2.6638517E-1,5.491401E-1,2.9900733E-1,1.2097406E0,8.390313E-1,1.6537799E0,1.2632962E0,4.0893447E-1,7.821894E-2,9.168282E-1,1.5115412E-1,-6.9766946E-2,5.6777857E-2,-4.8639007E-2,-1.9837594E-1,1.0521982E0,2.5538585E-1,-9.576348E-2,2.77067E0,-2.3564595E-1,-1.503156E-1,-2.8802735E-1,-2.396914E-1,-1.513567E-1,-2.1725513E-1,-2.615713E-1,-1.6372493E-1,1.1051605E0,5.832021E-1,-2.373619E-2,9.025472E-1,2.9149923E-1,1.7053375E0,-7.561093E-2,3.4613144E-2,8.831979E-2,2.6733175E-1,5.8253933E-2,7.19849E-1,9.5566854E-2,-5.247311E-2,2.0078415E-1,5.8424998E-2,1.1838591E0,2.172917E0,7.5785244E-1,1.2488948E0,3.8143936E-1,1.7808819E0,6.369487E-1,1.243221E0,7.5222903E-1,1.5683213E-2,3.0910105E-1,2.0761295E-1,1.0301385E0,5.26408E-1,2.553613E-1,4.6710747E-1,1.2769232E0,9.821759E-1,7.472144E-1,9.634227E-1,1.9119961E0,7.5680816E-1,1.3967673E-1,1.2903703E0,-5.106993E-2,4.581325E-1,1.5621363E0,4.6858586E-2,7.86982E-1,1.4919918E0,7.99784E-3,5.8755195E-1,-1.166214E-3,-6.905411E-3,3.9108962E-4,3.5634523E-3,-3.0089424E-3,1.138707E-4,-2.1385406E-3,-5.4274416E-3,3.2360416E-2,5.436144E-3,-6.6850814E-3,1.7019892E-2,3.0317353E-3,-4.4395206E-3,5.968673E-2,1.6264474E-2,-5.087833E-3,-2.6897704E-3,9.1997004E-4,-3.4267374E-3,-5.6023267E-3,-6.0652457E-3,-3.007329E-3,-5.1312884E-3,-3.8344478E-3,-2.691526E-3,-2.7243977E-3,-4.9807206E-3,-5.37066E-3,-1.9771392E-3,-3.5537956E-3,2.5959339E-3,1.2006094E-2,3.944271E-2,6.464341E-3,1.269894E-2,1.788591E-2,-2.150943E-3,-1.2103188E-3,3.1460438E-2,5.5236463E-3,1.8613916E-2,-8.5836014E-4,4.209238E-2,6.0183727E-3,-3.2864942E-3,1.1298576E-3,1.6304187E-2,6.0123526E-3,-3.35727E-4,4.6559945E-3,5.499802E-4,8.2487585E-3,4.7034733E-2,3.9946518E-4,4.469462E-3,-1.3936355E-3,8.2619156E-4,2.3702881E-3,6.4572017E-3,1.6520271E-3,-7.684572E-4,3.0794654E-2,1.397882E-2,5.1717952E-2,1.1002499E-2,1.818616E-2,1.0791063E-2,2.2363126E-2,4.057997E-2,5.5790483E-3,9.630676E-3,-4.7106785E-3,4.643133E-2,1.48855895E-2,6.955276E-3,4.2479043E-3,2.982183E-2,1.3040881E-2,4.11322E-2,2.6139293E-2,-2.2500695E-5,5.7076234E-3,9.916892E-3,2.7822542E-3,6.395769E-3,1.7230576E-2,4.3732412E-2,9.973006E-3,1.37195075E-2,1.3131863E-2,4.484387E-3,5.664269E-3,1.1883342E-2,2.206561E-2,2.7888786E-2,1.5956253E-2,2.629749E-2,2.5140746E-2,1.4619922E-2,2.5766525E-2,1.8204173E-2,3.2796156E-2,4.5066316E-2,4.2172298E-2,1.23160025E-2,6.893611E-2,1.9597686E-3,2.6762791E-2,1.9036679E-2,-4.2008385E-3,1.3954262E-2,-5.386713E-4,1.0007033E-2,1.0046846E-2,6.237058E-2,4.286484E-3,-2.8614851E-3,1.775437E-2,8.766917E-3,3.6010638E-2,2.2123734E-2,-9.3046686E-4,1.877115E-2,3.0492884E-3,1.5171894E-2],"categories":[],"categories_nodes":[],"categories_segments":[],"categories_sizes":[],"default_left":[0,0,0,0,0,0,0,0,0,0,0,0,0,0,0,0,0,0,0,0,0,0,0,0,0,0,0,0,0,0,0,0,0,0,0,0,0,0,0,0,0,0,0,0,0,0,0,0,0,0,0,0,0,0,0,0,0,0,0,0,0,0,0,0,0,0,0,0,0,0,0,0,0,0,0,0,0,0,0,0,0,0,0,0,0,0,0,0,0,0,0,0,0,0,0,0,0,0,0,0,0,0,0,0,0,0,0,0,0,0,0,0,0,0,0,0,0,0,0,0,0,0,0,0,0,0,0,0,0,0,0,0,0,0,0,0,0,0,0,0,0,0,0,0,0,0,0,0,0,0,0,0,0,0,0,0,0,0,0,0,0,0,0,0,0,0,0,0,0,0,0,0,0,0,0,0,0,0,0,0,0,0,0,0,0,0,0,0,0,0,0,0,0,0,0,0,0,0,0,0,0,0,0,0,0,0,0,0,0,0,0,0,0,0,0,0,0,0,0,0,0,0,0,0,0,0,0,0,0,0,0,0,0,0,0,0,0,0,0,0,0,0,0,0,0,0,0,0,0,0,0,0,0],"id":0,"left_children":[1,3,5,7,9,11,13,15,17,19,21,23,25,27,29,31,33,35,37,39,41,43,45,47,49,51,53,55,57,59,61,63,65,67,69,71,73,75,77,79,81,83,85,87,89,91,93,95,97,99,101,103,105,107,109,111,113,115,117,119,121,123,125,127,129,131,133,135,137,139,141,143,145,147,149,151,153,155,157,159,161,163,165,167,169,171,-1,173,175,177,179,181,183,185,187,189,191,193,195,197,199,201,203,205,207,209,211,213,215,217,219,221,223,225,227,229,231,233,235,237,239,241,243,245,247,249,251,-1,-1,-1,-1,-1,-1,-1,-1,-1,-1,-1,-1,-1,-1,-1,-1,-1,-1,-1,-1,-1,-1,-1,-1,-1,-1,-1,-1,-1,-1,-1,-1,-1,-1,-1,-1,-1,-1,-1,-1,-1,-1,-1,-1,-1,-1,-1,-1,-1,-1,-1,-1,-1,-1,-1,-1,-1,-1,-1,-1,-1,-1,-1,-1,-1,-1,-1,-1,-1,-1,-1,-1,-1,-1,-1,-1,-1,-1,-1,-1,-1,-1,-1,-1,-1,-1,-1,-1,-1,-1,-1,-1,-1,-1,-1,-1,-1,-1,-1,-1,-1,-1,-1,-1,-1,-1,-1,-1,-1,-1,-1,-1,-1,-1,-1,-1,-1,-1,-1,-1,-1,-1,-1,-1,-1,-1],"loss_changes":[1.1095319E5,1.0774215E4,1.4237578E4,1.9733574E3,1.4754524E3,2.1155898E3,5.744953E3,2.1103102E2,8.988496E2,2.8822705E2,8.370021E2,5.376387E2,9.1979785E2,2.416039E3,1.2863779E3,1.738769E2,1.0715495E2,2.551748E2,3.3046875E2,1.273147E2,6.8519165E1,2.6643518E2,4.8775995E2,3.465874E2,2.0585791E2,2.8090088E2,6.6555176E2,1.3684023E3,5.105E2,3.0897107E2,1.1358359E3,1.2311201E2,7.114108E1,2.4252121E1,9.3835754E1,1.2623462E2,9.8109375E1,3.403545E2,2.068003E2,8.8772705E1,4.5970345E1,5.3607178E1,1.9377197E1,1.5306409E2,1.4663837E2,9.6190895E1,1.6555908E2,1.3023499E2,2.8602783E2,8.3297424E1,1.3814233E2,3.4518958E2,1.588584E2,3.3989062E2,1.18489136E2,2.0699023E2,4.231211E2,9.666924E2,5.2071875E2,2.6566968E2,1.7313443E2,7.251162E2,1.5124265E2,3.2568016E1,1.360191E2,4.4828075E1,3.4789948E1,2.561242E1,3.9618256E1,5.33148E-1,1.7230377E1,7.882764E1,1.2276697E2,1.39765625E1,9.8954834E1,2.2743652E2,2.6329248E2,7.70957E1,1.2975604E2,1.5157254E2,7.038208E1,3.402721E1,3.948348E1,5.1378113E1,1.8937576E1,1.9957853E1,0E0,1.395253E2,2.172539E2,8.81868E1,1.7059789E2,4.55747E1,1.0280669E2,1.0182944E2,9.83221E1,4.914157E1,1.6947375E2,2.7383008E2,1.3929272E2,4.829547E1,4.7427338E1,1.2221887E2,1.0623157E2,3.237893E2,1.8580246E1,1.6223169E2,2.047124E2,2.718877E2,1.3134766E2,1.602403E2,7.766217E1,2.1298633E2,1.8964844E2,1.7565332E2,2.7123926E2,2.9777637E2,1.7711774E2,5.536117E1,2.6911523E2,1.3525188E2,2.1717383E2,1.2544154E2,1.15999794E2,2.7832617E2,2.110835E2,9.258469E1,4.4386627E1,0E0,0E0,0E0,0E0,0E0,0E0,0E0,0E0,0E0,0E0,0E0,0E0,0E0,0E0,0E0,0E0,0E0,0E0,0E0,0E0,0E0,0E0,0E0,0E0,0E0,0E0,0E0,0E0,0E0,0E0,0E0,0E0,0E0,0E0,0E0,0E0,0E0,0E0,0E0,0E0,0E0,0E0,0E0,0E0,0E0,0E0,0E0,0E0,0E0,0E0,0E0,0E0,0E0,0E0,0E0,0E0,0E0,0E0,0E0,0E0,0E0,0E0,0E0,0E0,0E0,0E0,0E0,0E0,0E0,0E0,0E0,0E0,0E0,0E0,0E0,0E0,0E0,0E0,0E0,0E0,0E0,0E0,0E0,0E0,0E0,0E0,0E0,0E0,0E0,0E0,0E0,0E0,0E0,0E0,0E0,0E0,0E0,0E0,0E0,0E0,0E0,0E0,0E0,0E0,0E0,0E0,0E0,0E0,0E0,0E0,0E0,0E0,0E0,0E0,0E0,0E0,0E0,0E0,0E0,0E0,0E0,0E0,0E0,0E0,0E0,0E0],"parents":[2147483647,0,0,1,1,2,2,3,3,4,4,5,5,6,6,7,7,8,8,9,9,10,10,11,11,12,12,13,13,14,14,15,15,16,16,17,17,18,18,19,19,20,20,21,21,22,22,23,23,24,24,25,25,26,26,27,27,28,28,29,29,30,30,31,31,32,32,33,33,34,34,35,35,36,36,37,37,38,38,39,39,40,40,41,41,42,42,43,43,44,44,45,45,46,46,47,47,48,48,49,49,50,50,51,51,52,52,53,53,54,54,55,55,56,56,57,57,58,58,59,59,60,60,61,61,62,62,63,63,64,64,65,65,66,66,67,67,68,68,69,69,70,70,71,71,72,72,73,73,74,74,75,75,76,76,77,77,78,78,79,79,80,80,81,81,82,82,83,83,84,84,85,85,87,87,88,88,89,89,90,90,91,91,92,92,93,93,94,94,95,95,96,96,97,97,98,98,99,99,100,100,101,101,102,102,103,103,104,104,105,105,106,106,107,107,108,108,109,109,110,110,111,111,112,112,113,113,114,114,115,115,116,116,117,117,118,118,119,119,120,120,121,121,122,122,123,123,124,124,125,125,126,126],"right_children":[2,4,6,8,10,12,14,16,18,20,22,24,26,28,30,32,34,36,38,40,42,44,46,48,50,52,54,56,58,60,62,64,66,68,70,72,74,76,78,80,82,84,86,88,90,92,94,96,98,100,102,104,106,108,110,112,114,116,118,120,122,124,126,128,130,132,134,136,138,140,142,144,146,148,150,152,154,156,158,160,162,164,166,168,170,172,-1,174,176,178,180,182,184,186,188,190,192,194,196,198,200,202,204,206,208,210,212,214,216,218,220,222,224,226,228,230,232,234,236,238,240,242,244,246,248,250,252,-1,-1,-1,-1,-1,-1,-1,-1,-1,-1,-1,-1,-1,-1,-1,-1,-1,-1,-1,-1,-1,-1,-1,-1,-1,-1,-1,-1,-1,-1,-1,-1,-1,-1,-1,-1,-1,-1,-1,-1,-1,-1,-1,-1,-1,-1,-1,-1,-1,-1,-1,-1,-1,-1,-1,-1,-1,-1,-1,-1,-1,-1,-1,-1,-1,-1,-1,-1,-1,-1,-1,-1,-1,-1,-1,-1,-1,-1,-1,-1,-1,-1,-1,-1,-1,-1,-1,-1,-1,-1,-1,-1,-1,-1,-1,-1,-1,-1,-1,-1,-1,-1,-1,-1,-1,-1,-1,-1,-1,-1,-1,-1,-1,-1,-1,-1,-1,-1,-1,-1,-1,-1,-1,-1,-1,-1],"split_conditions":[6.2E-1,5E-3,5.66E0,-8.660254E-1,-8.660254E-1,-8.660254E-1,5E-1,9.876999E1,4.3533334E-1,1.6E1,-5.772916E-1,1.6E1,2.205E0,2.3815E1,2.7609697E-1,-9.882014E-2,-9.765E1,-3.6572254E-1,8.429415E-1,2.2815E1,1.50599985E1,-9.725E1,1.2E-1,-4.7495106E-1,2.04E0,-9.9167734E-1,5E-1,-8.660254E-1,-9.497178E-1,7.2035723E0,1.8E1,9.214286E-2,1.9035715E0,-4.2889193E-1,2.1E0,2E1,1.7857142E-2,8.660254E-1,-9.735E1,-4.7495106E-1,-2.843592E-1,7.794501E1,4.4524998E1,-5E-1,3.6194992E1,-5E-1,-5E-1,2.1636667E0,1.4E1,7.794501E1,2.2699997E1,5.585E0,4.2110088E-1,-9.981855E-1,2.35E-1,-1.500554E-1,1.1934999E1,2.4E1,-9.383774E-1,8E0,-8.475409E-1,2.736E1,9.9999994E-2,2.4E1,1.7399998E0,-6.450845E-2,-4.7321387E-2,-9.825E1,1.012E1,-4.5973274E-1,1.2341666E1,5E-3,-9.837093E-1,2.1E1,-2.4492937E-16,9.285714E-3,-6.450845E-2,9.998518E-1,9.998518E-1,1.7945E0,-9.835E1,-4.5973274E-1,-9.805E1,6.6645E1,-8.1676394E-2,1.8E1,3.4613144E-2,2.5E1,8.7842865E0,-9.866579E-1,-6.7125994E-1,1.14999995E-1,6.9499993E-1,3.9999995E-2,2.5E1,-9.775E1,2.8775005E1,1.6E-1,3.7499995E0,2.0000002E-1,-8.1676394E-2,-6.450845E-2,-2.1772324E-1,3E1,2E0,2.7609697E-1,-9.725E1,3E1,5.476333E0,3E0,2.7609697E-1,1E1,-9.745E1,2E0,-9.9167734E-1,4.4510002E1,-9.990741E-1,1.2458333E0,7.383264E-1,1.115E0,-8.287701E-1,5E-3,1.9E1,1.1E-1,1.1E1,9.4698775E-1,1.4018333E0,-1.166214E-3,-6.905411E-3,3.9108962E-4,3.5634523E-3,-3.0089424E-3,1.138707E-4,-2.1385406E-3,-5.4274416E-3,3.2360416E-2,5.436144E-3,-6.6850814E-3,1.7019892E-2,3.0317353E-3,-4.4395206E-3,5.968673E-2,1.6264474E-2,-5.087833E-3,-2.6897704E-3,9.1997004E-4,-3.4267374E-3,-5.6023267E-3,-6.0652457E-3,-3.007329E-3,-5.1312884E-3,-3.8344478E-3,-2.691526E-3,-2.7243977E-3,-4.9807206E-3,-5.37066E-3,-1.9771392E-3,-3.5537956E-3,2.5959339E-3,1.2006094E-2,3.944271E-2,6.464341E-3,1.269894E-2,1.788591E-2,-2.150943E-3,-1.2103188E-3,3.1460438E-2,5.5236463E-3,1.8613916E-2,-8.5836014E-4,4.209238E-2,6.0183727E-3,-3.2864942E-3,1.1298576E-3,1.6304187E-2,6.0123526E-3,-3.35727E-4,4.6559945E-3,5.499802E-4,8.2487585E-3,4.7034733E-2,3.9946518E-4,4.469462E-3,-1.3936355E-3,8.2619156E-4,2.3702881E-3,6.4572017E-3,1.6520271E-3,-7.684572E-4,3.0794654E-2,1.397882E-2,5.1717952E-2,1.1002499E-2,1.818616E-2,1.0791063E-2,2.2363126E-2,4.057997E-2,5.5790483E-3,9.630676E-3,-4.7106785E-3,4.643133E-2,1.48855895E-2,6.955276E-3,4.2479043E-3,2.982183E-2,1.3040881E-2,4.11322E-2,2.6139293E-2,-2.2500695E-5,5.7076234E-3,9.916892E-3,2.7822542E-3,6.395769E-3,1.7230576E-2,4.3732412E-2,9.973006E-3,1.37195075E-2,1.3131863E-2,4.484387E-3,5.664269E-3,1.1883342E-2,2.206561E-2,2.7888786E-2,1.5956253E-2,2.629749E-2,2.5140746E-2,1.4619922E-2,2.5766525E-2,1.8204173E-2,3.2796156E-2,4.5066316E-2,4.2172298E-2,1.23160025E-2,6.893611E-2,1.9597686E-3,2.6762791E-2,1.9036679E-2,-4.2008385E-3,1.3954262E-2,-5.386713E-4,1.0007033E-2,1.0046846E-2,6.237058E-2,4.286484E-3,-2.8614851E-3,1.775437E-2,8.766917E-3,3.6010638E-2,2.2123734E-2,-9.3046686E-4,1.877115E-2,3.0492884E-3,1.5171894E-2],"split_indices":[8,8,8,2,2,2,2,9,14,6,5,6,8,8,5,5,1,5,5,9,9,1,8,5,8,5,2,2,5,13,6,13,13,5,10,6,13,2,1,5,5,11,11,2,9,2,2,14,6,11,11,13,5,5,10,5,8,6,5,6,5,8,10,6,11,5,5,1,11,5,14,9,5,6,2,13,5,5,5,14,1,5,1,10,5,6,0,6,13,5,5,11,9,11,6,1,9,10,10,10,5,5,5,6,6,5,1,6,14,6,5,6,1,6,5,8,5,14,5,11,5,10,6,11,6,5,14,0,0,0,0,0,0,0,0,0,0,0,0,0,0,0,0,0,0,0,0,0,0,0,0,0,0,0,0,0,0,0,0,0,0,0,0,0,0,0,0,0,0,0,0,0,0,0,0,0,0,0,0,0,0,0,0,0,0,0,0,0,0,0,0,0,0,0,0,0,0,0,0,0,0,0,0,0,0,0,0,0,0,0,0,0,0,0,0,0,0,0,0,0,0,0,0,0,0,0,0,0,0,0,0,0,0,0,0,0,0,0,0,0,0,0,0,0,0,0,0,0,0,0,0,0,0],"split_type":[0,0,0,0,0,0,0,0,0,0,0,0,0,0,0,0,0,0,0,0,0,0,0,0,0,0,0,0,0,0,0,0,0,0,0,0,0,0,0,0,0,0,0,0,0,0,0,0,0,0,0,0,0,0,0,0,0,0,0,0,0,0,0,0,0,0,0,0,0,0,0,0,0,0,0,0,0,0,0,0,0,0,0,0,0,0,0,0,0,0,0,0,0,0,0,0,0,0,0,0,0,0,0,0,0,0,0,0,0,0,0,0,0,0,0,0,0,0,0,0,0,0,0,0,0,0,0,0,0,0,0,0,0,0,0,0,0,0,0,0,0,0,0,0,0,0,0,0,0,0,0,0,0,0,0,0,0,0,0,0,0,0,0,0,0,0,0,0,0,0,0,0,0,0,0,0,0,0,0,0,0,0,0,0,0,0,0,0,0,0,0,0,0,0,0,0,0,0,0,0,0,0,0,0,0,0,0,0,0,0,0,0,0,0,0,0,0,0,0,0,0,0,0,0,0,0,0,0,0,0,0,0,0,0,0,0,0,0,0,0,0,0,0,0,0,0,0,0,0,0,0,0,0],"sum_hessian":[1.256678E6,1.023753E6,2.32925E5,8.45444E5,1.78309E5,1.33293E5,9.9632E4,5.3973E4,7.91471E5,1.1993E4,1.66316E5,1.935E4,1.13943E5,7.203E4,2.7602E4,5.3743E4,2.3E2,2.53684E5,5.37787E5,6.094E3,5.899E3,4.5772E4,1.20544E5,1.0227E4,9.123E3,6.6644E4,4.7299E4,5.0729E4,2.1301E4,1.5458E4,1.2144E4,4.0425E4,1.3318E4,1.69E2,6.1E1,7.1333E4,1.82351E5,4.38056E5,9.9731E4,5.594E3,5E2,5.299E3,6E2,2.9003E4,1.6769E4,6.8412E4,5.2132E4,5.44E2,9.683E3,4.762E3,4.361E3,3.342E3,6.3302E4,3.1134E4,1.6165E4,1.362E4,3.7109E4,4.179E3,1.7122E4,1.1737E4,3.721E3,9.724E3,2.42E3,1.0324E4,3.0101E4,8.103E3,5.215E3,5.8E1,1.11E2,1.5E1,4.6E1,4.1587E4,2.9746E4,1.16671E5,6.568E4,3.35809E5,1.02247E5,6.8082E4,3.1649E4,3.48E2,5.246E3,4.4E2,6E1,5.273E3,2.6E1,5.95E2,5E0,6.032E3,2.2971E4,1.6428E4,3.41E2,4.713E3,6.3699E4,1.0142E4,4.199E4,2.9E2,2.54E2,8.296E3,1.387E3,4.72E3,4.2E1,3.945E3,4.16E2,2.487E3,8.55E2,3.6656E4,2.6646E4,1.403E3,2.9731E4,1.2835E4,3.33E3,1.0512E4,3.108E3,2.1354E4,1.5755E4,3.244E3,9.35E2,4.03E2,1.6719E4,1.134E3,1.0603E4,7.6E1,3.645E3,7.935E3,1.789E3,1.823E3,5.97E2,9.913E3,4.11E2,2.3038E4,7.063E3,2.819E3,5.284E3,2.316E3,2.899E3,3.3E1,2.5E1,5.6E1,5.5E1,5E0,1E1,4.1E1,5E0,3.5084E4,6.503E3,2.877E3,2.6869E4,7.6807E4,3.9864E4,1.0437E4,5.5243E4,9.8604E4,2.37205E5,2.8805E4,7.3442E4,6.5288E4,2.794E3,3.0212E4,1.437E3,2.21E2,1.27E2,8.72E2,4.374E3,3.6E1,4.04E2,2.5E1,3.5E1,5.151E3,1.22E2,5E0,2.1E1,1.13E2,4.82E2,5.78E3,2.52E2,2.0562E4,2.409E3,2.46E3,1.3968E4,2.88E2,5.3E1,2.963E3,1.75E3,5.3823E4,9.876E3,6.06E3,4.082E3,3.3602E4,8.388E3,1.66E2,1.24E2,2.02E2,5.2E1,4.896E3,3.4E3,1.19E3,1.97E2,2.334E3,2.386E3,9E0,3.3E1,2.876E3,1.069E3,8.1E1,3.35E2,2.311E3,1.76E2,1E1,8.45E2,3.2527E4,4.129E3,1.6545E4,1.0101E4,1.226E3,1.77E2,2.5329E4,4.402E3,9.23E2,1.1912E4,1.362E3,1.968E3,4.247E3,6.265E3,2.002E3,1.106E3,6.56E2,2.0698E4,2.214E3,1.3541E4,1.808E3,1.436E3,8.7E1,8.48E2,4E0,3.99E2,1.4649E4,2.07E3,9.36E2,1.98E2,8.49E2,9.754E3,4.6E1,3E1,1.937E3,1.708E3,6.155E3,1.78E3,9.92E2,7.97E2,1.723E3,1E2,1.69E2,4.28E2],"tree_param":{"num_deleted":"0","num_feature":"15","num_nodes":"253","size_leaf_vector":"1"}},{"base_weights":[9.3241244E-5,-1.3858645E-1,6.0913336E-1,-1.8322985E-1,9.248938E-2,4.0511915E-1,8.982405E-1,-3.8886962E-3,-1.9537754E-1,4.1973117E-1,6.770897E-2,7.0915127E-1,3.526859E-1,1.062094E0,5.0752217E-1,-1.0731221E-1,3.014117E-2,-2.502081E-1,-1.7219384E-1,2.732425E-1,5.649472E-1,1.7713928E-1,2.4593383E-2,5.412967E-1,8.4561026E-1,1.8348575E-1,4.1989863E-1,9.41652E-1,1.3419708E0,3.997147E-1,7.3535234E-1,-4.9513567E-2,-1.9754034E-1,6.267386E-3,1.7787325E-1,5.719063E-1,-2.523416E-1,-2.0844129E-1,-1.40604E-1,2.6574507E-1,1.8684031E0,5.286974E-1,1.1024483E0,2.5935745E-2,2.2612153E-1,-3.0878989E-2,8.6842686E-2,3.7148044E-1,6.66988E-1,8.05502E-1,1.5755603E0,2.0646754E-1,-5.7627615E-2,3.2360002E-1,5.3803897E-1,1.2007209E0,8.438048E-1,1.6603507E0,1.2352016E0,7.082899E-1,3.1669152E-1,5.2791685E-1,1.3479242E0,-3.424734E-1,-1.6607419E-2,-2.6744708E-1,-1.11252986E-1,-8.011215E-2,3.9292715E-2,5.9189373E-1,1.018637E-1,-1.6924627E-1,2.865201E0,-2.7486044E-1,-2.308709E-1,-2.398024E-1,-1.8750057E-1,-1.4179322E-1,1.3286297E0,2.9642162E-1,-7.755213E-2,2.1474993E0,-5.465496E-3,6.530736E-1,3.8037676E-1,9.607985E-1,3.8112428E0,6.134132E-1,-6.9730217E-3,2.4958809E-1,1.7004447E-2,1.5214837E-1,-4.0817957E-2,2.0855829E-1,6.093274E-2,3.5866755E-1,1.1716465E0,2.8874025E-1,7.478024E-1,6.527164E-1,9.583379E-1,1.2126598E0,3.3551135E0,1.6209677E-1,3.3741897E-1,2.9985565E-1,-9.818455E-2,5.4612356E-1,3.0656028E-1,1.0026833E0,5.184024E-1,1.2634761E0,9.408342E-1,8.2655114E-1,2.071421E0,1.8281282E0,1.1970711E0,4.526705E-1,1.278057E0,5.713431E-1,1.0342965E0,3.9875025E-1,6.488867E-2,2.2367623E-1,6.74252E-1,2.1281888E0,7.767452E-1,-6.3702874E-3,-7.01211E-3,-2.347822E-3,9.079318E-4,-5.77098E-3,-1.4198481E-3,1.0620862E-3,-3.7798716E-3,2.778344E-4,-4.357509E-3,-9.804099E-4,1.5643717E-3,9.5044635E-4,2.7876632E-2,9.45789E-4,1.0670382E-2,9.7376695E-3,-5.338586E-3,3.6016922E-2,6.1648652E-2,-4.9394947E-3,-5.7393056E-3,1.4747684E-2,-4.641088E-3,-7.100994E-4,-4.960607E-3,-3.5466317E-3,-4.9530775E-3,-2.5833335E-3,-4.7567026E-3,-4.6966327E-3,6.801183E-2,5.6093805E-3,2.0033304E-2,-3.481301E-3,7.795976E-4,1.5471748E-2,4.6138696E-2,5.697975E-3,1.4196278E-2,1.4281091E-2,5.843603E-3,1.1836244E-2,2.9793376E-2,8.668512E-2,4.740371E-2,1.781839E-2,-5.716231E-3,-3.180037E-4,3.2432616E-2,3.0140765E-3,6.3977754E-3,-2.343994E-4,3.321098E-2,5.6084776E-3,1.0881565E-3,-2.0781504E-3,-5.051088E-4,2.691991E-3,6.171529E-3,1.9301885E-3,5.093153E-4,8.357332E-3,3.9226105E-3,4.0929332E-2,-4.517063E-3,3.2998265E-3,1.0307142E-2,1.6028984E-2,4.6058297E-3,1.534254E-2,5.265398E-3,1.6969603E-2,2.5608681E-2,1.8570669E-2,3.198177E-2,7.41475E-2,-1.6059972E-3,2.3903423E-3,6.50092E-3,6.0544237E-3,2.8818754E-2,-7.768146E-4,1.4091182E-2,-2.195652E-3,9.6273925E-3,1.4695642E-2,-1.1572441E-4,5.1884437E-3,7.284127E-3,1.6054137E-2,2.8428843E-2,1.19952755E-2,9.441467E-3,2.7507305E-2,2.1547107E-2,1.3370045E-2,2.2772813E-2,2.2443797E-2,1.5664728E-2,6.9345474E-2,2.8905047E-2,3.3617344E-2,4.7459822E-2,1.6832678E-2,5.247132E-2,-6.499581E-3,1.4318369E-2,2.6825363E-2,1.967362E-2,7.79277E-3,1.5096018E-2,8.409821E-3,3.1589165E-2,9.14864E-3,-8.2126564E-5,5.3576217E-4,1.1305417E-2,2.9842507E-3,1.9263526E-2,2.7749462E-2,1.0256424E-2,5.1625807E-2,1.7374907E-2,9.380339E-3,3.762526E-2],"categories":[],"categories_nodes":[],"categories_segments":[],"categories_sizes":[],"default_left":[0,0,0,0,0,0,0,0,0,0,0,0,0,0,0,0,0,0,0,0,0,0,0,0,0,0,0,0,0,0,0,0,0,0,0,0,0,0,0,0,0,0,0,0,0,0,0,0,0,0,0,0,0,0,0,0,0,0,0,0,0,0,0,0,0,0,0,0,0,0,0,0,0,0,0,0,0,0,0,0,0,0,0,0,0,0,0,0,0,0,0,0,0,0,0,0,0,0,0,0,0,0,0,0,0,0,0,0,0,0,0,0,0,0,0,0,0,0,0,0,0,0,0,0,0,0,0,0,0,0,0,0,0,0,0,0,0,0,0,0,0,0,0,0,0,0,0,0,0,0,0,0,0,0,0,0,0,0,0,0,0,0,0,0,0,0,0,0,0,0,0,0,0,0,0,0,0,0,0,0,0,0,0,0,0,0,0,0,0,0,0,0,0,0,0,0,0,0,0,0,0,0,0,0,0,0,0,0,0,0,0,0,0,0,0,0,0,0,0,0,0,0,0,0,0,0,0,0,0,0,0,0,0,0,0,0,0,0,0,0,0,0,0,0,0,0,0,0,0,0,0,0,0],"id":1,"left_children":[1,3,5,7,9,11,13,15,17,19,21,23,25,27,29,31,33,35,37,39,41,43,45,47,49,51,53,55,57,59,61,63,65,67,69,71,73,75,77,79,81,83,85,87,89,91,93,95,97,99,101,103,105,107,109,111,113,115,117,119,121,123,125,127,129,131,133,135,137,139,141,143,145,147,149,151,153,155,157,159,161,163,-1,165,167,169,171,173,175,177,179,181,183,185,187,189,191,193,195,197,199,201,203,205,207,209,211,213,215,217,219,221,223,225,227,229,231,233,235,237,239,241,243,245,247,249,251,-1,-1,-1,-1,-1,-1,-1,-1,-1,-1,-1,-1,-1,-1,-1,-1,-1,-1,-1,-1,-1,-1,-1,-1,-1,-1,-1,-1,-1,-1,-1,-1,-1,-1,-1,-1,-1,-1,-1,-1,-1,-1,-1,-1,-1,-1,-1,-1,-1,-1,-1,-1,-1,-1,-1,-1,-1,-1,-1,-1,-1,-1,-1,-1,-1,-1,-1,-1,-1,-1,-1,-1,-1,-1,-1,-1,-1,-1,-1,-1,-1,-1,-1,-1,-1,-1,-1,-1,-1,-1,-1,-1,-1,-1,-1,-1,-1,-1,-1,-1,-1,-1,-1,-1,-1,-1,-1,-1,-1,-1,-1,-1,-1,-1,-1,-1,-1,-1,-1,-1,-1,-1,-1,-1,-1,-1],"loss_changes":[1.0608753E5,1.0554195E4,1.3740008E4,1.8679863E3,1.3432986E3,2.177041E3,6.169703E3,1.914458E2,1.0207578E3,2.4790405E2,7.2656744E2,4.5968555E2,1.3247275E3,2.2876406E3,6.9917676E2,7.0221466E1,1.4435234E2,4.1870996E2,6.4624023E2,6.895285E1,1.13497925E2,3.223529E2,3.814719E2,1.9208691E2,3.230913E2,1.8354248E2,9.4833984E2,1.2024648E3,6.923242E2,4.9506567E2,1.1614629E3,7.914018E1,3.1686874E1,1.0052133E2,1.7912708E2,1.050888E3,1.1501953E2,1.7255664E2,5.271162E2,6.0903687E1,1.672567E1,1.0097339E2,1.3792361E2,2.0592175E2,1.6132178E2,1.06270966E2,1.6415335E2,3.889789E1,1.5803369E2,2.4465479E2,3.6791235E2,1.7564636E2,4.1828396E1,1.7400684E2,3.4107422E2,2.1104492E2,7.282656E2,3.9632227E2,5.1255273E2,1.8236646E2,3.1478992E2,3.0410645E2,1.0291831E3,4.9850464E-2,4.613539E1,1.20182495E1,3.0100428E1,1.2621648E2,8.763345E1,3.8540927E2,1.13332344E2,3.0125366E1,2.9361938E1,3.914258E1,1.3980713E2,1.7687012E2,9.63584E1,3.6539258E2,7.9122003E2,5.9425293E1,5.3490367E0,3.4726028E0,0E0,6.2113647E1,7.351163E1,6.780972E1,3.293457E0,1.4124506E2,1.466788E2,2.054281E2,1.5666179E2,3.7710724E1,5.4398735E1,6.753946E1,5.415515E1,3.6250854E1,7.381585E1,2.551876E1,1.1822412E2,2.3398853E2,1.8464795E2,5.1216614E1,1.17683716E2,1.5668402E2,2.9255597E2,4.0326412E1,1.7462065E1,3.4006818E2,1.15853516E2,1.25895386E2,1.35125E2,2.1674023E2,1.3579688E2,4.3435547E2,4.1190576E2,2.9786328E2,6.9039404E2,1.6318553E2,2.6860547E2,9.597778E1,4.0456458E2,2.7165283E2,7.140175E1,1.2215766E2,5.3052515E2,5.5528906E2,4.5355255E2,0E0,0E0,0E0,0E0,0E0,0E0,0E0,0E0,0E0,0E0,0E0,0E0,0E0,0E0,0E0,0E0,0E0,0E0,0E0,0E0,0E0,0E0,0E0,0E0,0E0,0E0,0E0,0E0,0E0,0E0,0E0,0E0,0E0,0E0,0E0,0E0,0E0,0E0,0E0,0E0,0E0,0E0,0E0,0E0,0E0,0E0,0E0,0E0,0E0,0E0,0E0,0E0,0E0,0E0,0E0,0E0,0E0,0E0,0E0,0E0,0E0,0E0,0E0,0E0,0E0,0E0,0E0,0E0,0E0,0E0,0E0,0E0,0E0,0E0,0E0,0E0,0E0,0E0,0E0,0E0,0E0,0E0,0E0,0E0,0E0,0E0,0E0,0E0,0E0,0E0,0E0,0E0,0E0,0E0,0E0,0E0,0E0,0E0,0E0,0E0,0E0,0E0,0E0,0E0,0E0,0E0,0E0,0E0,0E0,0E0,0E0,0E0,0E0,0E0,0E0,0E0,0E0,0E0,0E0,0E0,0E0,0E0,0E0,0E0,0E0,0E0],"parents":[2147483647,0,0,1,1,2,2,3,3,4,4,5,5,6,6,7,7,8,8,9,9,10,10,11,11,12,12,13,13,14,14,15,15,16,16,17,17,18,18,19,19,20,20,21,21,22,22,23,23,24,24,25,25,26,26,27,27,28,28,29,29,30,30,31,31,32,32,33,33,34,34,35,35,36,36,37,37,38,38,39,39,40,40,41,41,42,42,43,43,44,44,45,45,46,46,47,47,48,48,49,49,50,50,51,51,52,52,53,53,54,54,55,55,56,56,57,57,58,58,59,59,60,60,61,61,62,62,63,63,64,64,65,65,66,66,67,67,68,68,69,69,70,70,71,71,72,72,73,73,74,74,75,75,76,76,77,77,78,78,79,79,80,80,81,81,83,83,84,84,85,85,86,86,87,87,88,88,89,89,90,90,91,91,92,92,93,93,94,94,95,95,96,96,97,97,98,98,99,99,100,100,101,101,102,102,103,103,104,104,105,105,106,106,107,107,108,108,109,109,110,110,111,111,112,112,113,113,114,114,115,115,116,116,117,117,118,118,119,119,120,120,121,121,122,122,123,123,124,124,125,125,126,126],"right_children":[2,4,6,8,10,12,14,16,18,20,22,24,26,28,30,32,34,36,38,40,42,44,46,48,50,52,54,56,58,60,62,64,66,68,70,72,74,76,78,80,82,84,86,88,90,92,94,96,98,100,102,104,106,108,110,112,114,116,118,120,122,124,126,128,130,132,134,136,138,140,142,144,146,148,150,152,154,156,158,160,162,164,-1,166,168,170,172,174,176,178,180,182,184,186,188,190,192,194,196,198,200,202,204,206,208,210,212,214,216,218,220,222,224,226,228,230,232,234,236,238,240,242,244,246,248,250,252,-1,-1,-1,-1,-1,-1,-1,-1,-1,-1,-1,-1,-1,-1,-1,-1,-1,-1,-1,-1,-1,-1,-1,-1,-1,-1,-1,-1,-1,-1,-1,-1,-1,-1,-1,-1,-1,-1,-1,-1,-1,-1,-1,-1,-1,-1,-1,-1,-1,-1,-1,-1,-1,-1,-1,-1,-1,-1,-1,-1,-1,-1,-1,-1,-1,-1,-1,-1,-1,-1,-1,-1,-1,-1,-1,-1,-1,-1,-1,-1,-1,-1,-1,-1,-1,-1,-1,-1,-1,-1,-1,-1,-1,-1,-1,-1,-1,-1,-1,-1,-1,-1,-1,-1,-1,-1,-1,-1,-1,-1,-1,-1,-1,-1,-1,-1,-1,-1,-1,-1,-1,-1,-1,-1,-1,-1],"split_conditions":[6.2E-1,1E-2,5.99E0,-8.660254E-1,-8.660254E-1,-8.660254E-1,2.2192152E-1,-9.9421793E-1,1.5E1,-9.6573997E-1,-5.772916E-1,-9.700639E-1,1.9E1,2.3815E1,2.7609697E-1,1.9035715E0,5.035E0,-8.606997E-3,6.357143E-2,7.794501E1,-8.717063E-1,-4.4822934E-1,1.2E-1,1.7E0,-8.717063E-1,9.899325E-1,2.145E0,-8.660254E-1,-8.900276E-1,5.012418E-1,9.1758364E-1,3.9E1,-9.9843544E-1,-9.7784835E-1,-9.899325E-1,1.8621428E0,4.3533334E-1,4.7983333E-1,9.966589E-1,4E1,-9.95919E-1,2.6398332E0,7.3149996E0,-8.013611E-1,8.526428E0,-8.9963084E-1,-8.498171E-1,6.6645E1,2.0640001E0,3.7E1,7.5E-1,9.1758364E-1,-9.882014E-2,-9.9167734E-1,-9.981855E-1,3.9E1,1.9667289E-1,3.442161E-2,-6.839194E-1,4.4822934E-1,7.2035723E0,8.660254E-1,9.3688136E-1,-9.95919E-1,1.3571428E-2,1.2281429E1,-9.966589E-1,5E-3,1.3857143E-1,5.585E0,6.95E-1,-2.5818441E-2,5.8333325E-1,5.8778524E-1,-1.500554E-1,-9.837093E-1,8.5207754E-1,1E0,5E-3,6.6645E1,2.615E1,5.8198338E0,-5.465496E-3,3.6E1,-9.562348E-1,1.7945E0,1.7420715E1,3.5E1,7.794501E1,1.1214285E-1,7.5266683E-1,6.0142857E-1,2.0216668E-1,3.5E-2,2.8023067E-1,3.9499998E-1,-9.95919E-1,-9.796137E-1,4E1,3.3055E0,-9.3688136E-1,2.1636667E0,3.6E1,2.35E-1,3.8963044E-1,9.922222E-1,1.5E1,5.7221427E0,1.2449999E0,2.9999997E-2,-6.994583E-1,-9.3383723E-1,1.6E-1,-9.9167734E-1,-9.769385E-1,2.7999997E-1,1.7129314E-1,-7.0558363E-1,-6.8077344E-1,2.4E1,7.602857E0,9.8594815E-1,1.9245158E-1,2.33E0,5.7377225E-1,5E-3,1.2E1,-6.3702874E-3,-7.01211E-3,-2.347822E-3,9.079318E-4,-5.77098E-3,-1.4198481E-3,1.0620862E-3,-3.7798716E-3,2.778344E-4,-4.357509E-3,-9.804099E-4,1.5643717E-3,9.5044635E-4,2.7876632E-2,9.45789E-4,1.0670382E-2,9.7376695E-3,-5.338586E-3,3.6016922E-2,6.1648652E-2,-4.9394947E-3,-5.7393056E-3,1.4747684E-2,-4.641088E-3,-7.100994E-4,-4.960607E-3,-3.5466317E-3,-4.9530775E-3,-2.5833335E-3,-4.7567026E-3,-4.6966327E-3,6.801183E-2,5.6093805E-3,2.0033304E-2,-3.481301E-3,7.795976E-4,1.5471748E-2,4.6138696E-2,5.697975E-3,1.4196278E-2,1.4281091E-2,5.843603E-3,1.1836244E-2,2.9793376E-2,8.668512E-2,4.740371E-2,1.781839E-2,-5.716231E-3,-3.180037E-4,3.2432616E-2,3.0140765E-3,6.3977754E-3,-2.343994E-4,3.321098E-2,5.6084776E-3,1.0881565E-3,-2.0781504E-3,-5.051088E-4,2.691991E-3,6.171529E-3,1.9301885E-3,5.093153E-4,8.357332E-3,3.9226105E-3,4.0929332E-2,-4.517063E-3,3.2998265E-3,1.0307142E-2,1.6028984E-2,4.6058297E-3,1.534254E-2,5.265398E-3,1.6969603E-2,2.5608681E-2,1.8570669E-2,3.198177E-2,7.41475E-2,-1.6059972E-3,2.3903423E-3,6.50092E-3,6.0544237E-3,2.8818754E-2,-7.768146E-4,1.4091182E-2,-2.195652E-3,9.6273925E-3,1.4695642E-2,-1.1572441E-4,5.1884437E-3,7.284127E-3,1.6054137E-2,2.8428843E-2,1.19952755E-2,9.441467E-3,2.7507305E-2,2.1547107E-2,1.3370045E-2,2.2772813E-2,2.2443797E-2,1.5664728E-2,6.9345474E-2,2.8905047E-2,3.3617344E-2,4.7459822E-2,1.6832678E-2,5.247132E-2,-6.499581E-3,1.4318369E-2,2.6825363E-2,1.967362E-2,7.79277E-3,1.5096018E-2,8.409821E-3,3.1589165E-2,9.14864E-3,-8.2126564E-5,5.3576217E-4,1.1305417E-2,2.9842507E-3,1.9263526E-2,2.7749462E-2,1.0256424E-2,5.1625807E-2,1.7374907E-2,9.380339E-3,3.762526E-2],"split_indices":[8,8,8,2,2,2,4,4,7,4,5,4,7,8,5,13,11,4,13,11,4,4,8,8,4,4,8,2,5,4,4,7,4,4,4,13,14,14,4,7,4,14,12,4,13,4,4,11,14,7,12,4,5,5,5,7,4,4,5,4,13,2,4,4,13,13,4,12,13,13,12,4,14,4,5,5,5,3,10,10,0,14,0,7,4,14,13,7,10,13,4,13,14,11,4,12,4,4,7,14,4,14,7,10,5,4,7,13,8,10,4,4,11,5,5,12,4,4,4,7,13,4,5,10,4,10,7,0,0,0,0,0,0,0,0,0,0,0,0,0,0,0,0,0,0,0,0,0,0,0,0,0,0,0,0,0,0,0,0,0,0,0,0,0,0,0,0,0,0,0,0,0,0,0,0,0,0,0,0,0,0,0,0,0,0,0,0,0,0,0,0,0,0,0,0,0,0,0,0,0,0,0,0,0,0,0,0,0,0,0,0,0,0,0,0,0,0,0,0,0,0,0,0,0,0,0,0,0,0,0,0,0,0,0,0,0,0,0,0,0,0,0,0,0,0,0,0,0,0,0,0,0,0],"split_type":[0,0,0,0,0,0,0,0,0,0,0,0,0,0,0,0,0,0,0,0,0,0,0,0,0,0,0,0,0,0,0,0,0,0,0,0,0,0,0,0,0,0,0,0,0,0,0,0,0,0,0,0,0,0,0,0,0,0,0,0,0,0,0,0,0,0,0,0,0,0,0,0,0,0,0,0,0,0,0,0,0,0,0,0,0,0,0,0,0,0,0,0,0,0,0,0,0,0,0,0,0,0,0,0,0,0,0,0,0,0,0,0,0,0,0,0,0,0,0,0,0,0,0,0,0,0,0,0,0,0,0,0,0,0,0,0,0,0,0,0,0,0,0,0,0,0,0,0,0,0,0,0,0,0,0,0,0,0,0,0,0,0,0,0,0,0,0,0,0,0,0,0,0,0,0,0,0,0,0,0,0,0,0,0,0,0,0,0,0,0,0,0,0,0,0,0,0,0,0,0,0,0,0,0,0,0,0,0,0,0,0,0,0,0,0,0,0,0,0,0,0,0,0,0,0,0,0,0,0,0,0,0,0,0,0,0,0,0,0,0,0,0,0,0,0,0,0,0,0,0,0,0,0],"sum_hessian":[1.256044E6,1.023086E6,2.32958E5,8.57432E5,1.65654E5,1.3658E5,9.6378E4,5.4394E4,8.03038E5,1.166E4,1.53994E5,2.0088E4,1.16492E5,6.7901E4,2.8477E4,1.3466E4,4.0928E4,2.38638E5,5.644E5,5.806E3,5.854E3,4.3524E4,1.1047E5,9.01E3,1.1078E4,3.312E4,8.3372E4,4.7475E4,2.0426E4,1.9332E4,9.145E3,8.209E3,5.257E3,3.5235E4,5.693E3,6.17E2,2.38021E5,2.62822E5,3.01578E5,5.78E3,2.6E1,5.486E3,3.68E2,1.065E4,3.2874E4,5.8415E4,5.2055E4,3.834E3,5.176E3,1.0503E4,5.75E2,3.0238E4,2.882E3,4.5934E4,3.7438E4,1.3012E4,3.4463E4,5.126E3,1.53E4,4.097E3,1.5235E4,6.833E3,2.312E3,8.28E2,7.381E3,2.903E3,2.354E3,9.745E3,2.549E4,8.82E2,4.811E3,4.67E2,1.5E2,1.16169E5,1.21852E5,1.05225E5,1.57597E5,3.01335E5,2.43E2,5.306E3,4.74E2,2.3E1,3E0,2.982E3,2.504E3,3.51E2,1.7E1,5.64E2,1.0086E4,2.9557E4,3.317E3,3.008E3,5.5407E4,9.135E3,4.292E4,3.775E3,5.9E1,9.12E2,4.264E3,5.255E3,5.248E3,4.79E2,9.6E1,2.2587E4,7.651E3,2.93E2,2.589E3,3.265E3,4.2669E4,1.516E3,3.5922E4,1.0478E4,2.534E3,3.3987E4,4.76E2,3.761E3,1.365E3,7.95E2,1.4505E4,2.887E3,1.21E3,1.149E4,3.745E3,2.22E3,4.613E3,9.76E2,1.336E3,2.2E2,6.08E2,2.811E3,4.57E3,2.621E3,2.82E2,7.56E2,1.598E3,5.793E3,3.952E3,7.798E3,1.7692E4,5.26E2,3.56E2,4.272E3,5.39E2,6E1,4.07E2,2.7E1,1.23E2,3.517E4,8.0999E4,1.48E2,1.21704E5,4.074E3,1.01151E5,1.34811E5,2.2786E4,2.66324E5,3.5011E4,1.39E2,1.04E2,5.19E3,1.16E2,2.59E2,2.15E2,3E0,2E1,3.99E2,2.583E3,5.22E2,1.982E3,2.08E2,1.43E2,1.1E1,6E0,4.31E2,1.33E2,1.0032E4,5.4E1,1.2283E4,1.7274E4,3.261E3,5.6E1,1.3E3,1.708E3,1.0962E4,4.4445E4,5.253E3,3.882E3,2.1426E4,2.1494E4,2.766E3,1.009E3,3.6E1,2.3E1,5.91E2,3.21E2,3.863E3,4.01E2,4.061E3,1.194E3,3.916E3,1.332E3,2.78E2,2.01E2,8.7E1,9E0,1.7909E4,4.678E3,7.419E3,2.32E2,1.6E2,1.33E2,2.539E3,5E1,2.433E3,8.32E2,2.3477E4,1.9192E4,1.028E3,4.88E2,1.3029E4,2.2893E4,6.54E3,3.938E3,1.068E3,1.466E3,4.34E3,2.9647E4,1.46E2,3.3E2,2.964E3,7.97E2,1.094E3,2.71E2,2.01E2,5.94E2,1.1938E4,2.567E3,1.452E3,1.435E3,5.7E2,6.4E2,1.0029E4,1.461E3,3.481E3,2.64E2,2.018E3,2.02E2,8.5E2,3.763E3,7.17E2,2.59E2,1.046E3,2.9E2],"tree_param":{"num_deleted":"0","num_feature":"15","num_nodes":"253","size_leaf_vector":"1"}},{"base_weights":[6.998393E-5,-1.3648264E-1,5.994209E-1,-1.8201937E-1,7.989894E-2,3.993456E-1,8.830154E-1,-6.8535255E-3,-1.9399324E-1,4.087888E-1,5.6197166E-2,6.922917E-1,3.487173E-1,1.0451629E0,4.974944E-1,-1.0508415E-2,8.6015826E-1,-2.490606E-1,-1.710825E-1,5.6591386E-1,2.461392E-1,1.6490366E-1,1.48919225E-2,8.4144574E-1,5.249134E-1,1.8797871E-1,4.1325098E-1,9.1068846E-1,1.2927723E0,6.3446295E-1,2.1358234E-1,-1.0210492E-1,1.9530077E-2,1.6575236E0,2.0784539E-1,5.385157E-1,-2.5104696E-1,-2.0709708E-1,-1.4184956E-1,6.085907E-1,8.842272E-2,2.3792174E-1,1.8395175E0,6.475433E-2,2.2748044E-1,-3.8069334E-2,8.725453E-2,7.968891E-1,1.5901105E0,3.7790635E-1,6.727417E-1,2.4534442E-1,6.355329E-2,3.2146668E-1,5.3139085E-1,1.1607091E0,8.1561154E-1,1.5901823E0,1.1970477E0,4.900665E-1,8.8392645E-1,8.695207E-2,4.2355716E-1,-4.0475238E-2,-1.8650357E-1,-9.701303E-2,4.326777E-2,2.4840236E0,6.3749135E-1,-3.2143983E-1,8.969489E-1,-2.2276889E-1,6.1555624E-2,-2.6248682E-1,-2.0712362E-1,-2.3879464E-1,-1.8571408E-1,-1.4302494E-1,1.2514284E0,5.848177E-1,1.2988306E0,2.2983072E0,-1.3259704E-2,2.7453604E-1,-8.0362044E-2,2.1174042E0,5.3204916E-4,5.746536E-1,4.811653E-2,3.0135977E-1,1.32138E-1,1.3562419E-1,-4.671075E-2,2.1140614E-1,5.929025E-2,6.3602E-1,9.7082394E-1,1.975009E0,8.219772E-1,-9.074054E-2,4.1135636E-1,6.2119967E-1,1.1727285E0,2.630128E-1,-7.6141104E-2,3.1669095E-1,-3.184553E-3,5.489864E-1,3.0394244E-1,1.0293627E0,5.101953E-1,1.2236247E0,8.980617E-1,7.9840165E-1,2.034623E0,1.9309138E0,1.3852868E0,1.3067255E0,8.847483E-1,4.6910712E-1,2.1155157E0,6.805791E-1,1.3161772E0,2.340424E-1,-8.842139E-2,2.4941991E-1,1.7589989E0,-6.6553033E-3,-1.294853E-4,-5.1352265E-3,-2.046825E-3,-1.099227E-3,-4.3335725E-3,1.8216217E-4,3.4523972E-3,-4.3215233E-4,5.4601945E-2,-6.7078685E-3,1.632262E-2,-6.7455983E-3,-2.5234078E-3,2.8285287E-2,2.314313E-3,8.568457E-3,-6.3612843E-3,-5.258754E-3,8.158655E-3,-2.9502013E-3,-4.6017882E-3,-7.3264755E-4,-4.9402374E-3,1.28416E-3,-3.7652715E-3,-2.609117E-3,-4.764632E-3,7.24477E-2,-6.542253E-3,1.1022726E-2,2.1746242E-2,4.6823364E-2,8.175122E-3,2.0069737E-2,5.671315E-2,1.863308E-2,-3.0676532E-3,6.170665E-3,-1.6450821E-3,5.3727035E-3,-3.3489063E-3,1.5239673E-2,4.522137E-2,1.7607428E-2,-5.756096E-3,-1.1818241E-4,2.634983E-3,6.705634E-3,9.7133167E-4,2.2001413E-3,1.4459612E-2,5.3125285E-3,7.0075004E-4,-1.2619843E-3,7.9955376E-4,2.668178E-3,6.382958E-3,1.6282356E-3,-3.903598E-4,1.4934256E-2,4.2711655E-3,1.709358E-2,2.5467202E-2,2.2258202E-2,6.2157653E-2,4.330927E-2,-4.868822E-3,-2.5804052E-3,3.2568086E-2,7.914913E-3,2.7908573E-2,6.962195E-3,1.4462071E-2,2.850118E-2,2.2912233E-3,4.3446994E-3,9.496427E-3,-2.1223228E-3,1.2492527E-2,2.091481E-2,4.2464454E-3,-1.6084969E-3,2.5740352E-3,1.465394E-2,4.1216429E-4,5.1376745E-3,7.1818754E-3,1.7213829E-2,4.2266954E-2,1.1862883E-2,9.253963E-3,2.0813243E-2,2.676787E-2,1.4235328E-2,2.4595201E-2,3.019456E-2,1.5422753E-2,2.9304603E-2,7.041538E-2,5.13418E-2,3.1647522E-2,1.880708E-2,3.5705622E-2,2.8508827E-2,2.1073665E-2,1.6634448E-2,4.9753122E-2,1.0462309E-2,-1.4936028E-3,5.3483468E-2,-2.3078418E-3,2.4538755E-2,1.0226644E-2,4.1956134E-2,1.4990705E-2,1.3359021E-3,8.736097E-3,1.4334396E-3,-4.57818E-3,2.4273798E-3,1.7539598E-2,4.777341E-2,1.1440597E-2],"categories":[],"categories_nodes":[],"categories_segments":[],"categories_sizes":[],"default_left":[0,0,0,0,0,0,0,0,0,0,0,0,0,0,0,0,0,0,0,0,0,0,0,0,0,0,0,0,0,0,0,0,0,0,0,0,0,0,0,0,0,0,0,0,0,0,0,0,0,0,0,0,0,0,0,0,0,0,0,0,0,0,0,0,0,0,0,0,0,0,0,0,0,0,0,0,0,0,0,0,0,0,0,0,0,0,0,0,0,0,0,0,0,0,0,0,0,0,0,0,0,0,0,0,0,0,0,0,0,0,0,0,0,0,0,0,0,0,0,0,0,0,0,0,0,0,0,0,0,0,0,0,0,0,0,0,0,0,0,0,0,0,0,0,0,0,0,0,0,0,0,0,0,0,0,0,0,0,0,0,0,0,0,0,0,0,0,0,0,0,0,0,0,0,0,0,0,0,0,0,0,0,0,0,0,0,0,0,0,0,0,0,0,0,0,0,0,0,0,0,0,0,0,0,0,0,0,0,0,0,0,0,0,0,0,0,0,0,0,0,0,0,0,0,0,0,0,0,0,0,0,0,0,0,0,0,0,0,0,0,0,0,0,0,0,0,0,0,0,0,0],"id":2,"left_children":[1,3,5,7,9,11,13,15,17,19,21,23,25,27,29,31,33,35,37,39,41,43,45,47,49,51,53,55,57,59,61,63,65,67,69,71,73,75,77,79,81,83,85,87,89,91,93,95,97,99,101,103,105,107,109,111,113,115,117,119,121,123,125,127,129,131,133,135,137,139,141,143,-1,145,147,149,151,153,155,157,159,161,163,165,167,169,-1,171,173,175,177,179,181,183,185,187,189,191,193,195,197,199,201,203,205,207,209,211,213,215,217,219,221,223,225,227,229,231,233,235,237,239,241,243,245,247,249,-1,-1,-1,-1,-1,-1,-1,-1,-1,-1,-1,-1,-1,-1,-1,-1,-1,-1,-1,-1,-1,-1,-1,-1,-1,-1,-1,-1,-1,-1,-1,-1,-1,-1,-1,-1,-1,-1,-1,-1,-1,-1,-1,-1,-1,-1,-1,-1,-1,-1,-1,-1,-1,-1,-1,-1,-1,-1,-1,-1,-1,-1,-1,-1,-1,-1,-1,-1,-1,-1,-1,-1,-1,-1,-1,-1,-1,-1,-1,-1,-1,-1,-1,-1,-1,-1,-1,-1,-1,-1,-1,-1,-1,-1,-1,-1,-1,-1,-1,-1,-1,-1,-1,-1,-1,-1,-1,-1,-1,-1,-1,-1,-1,-1,-1,-1,-1,-1,-1,-1,-1,-1,-1,-1],"loss_changes":[1.0279449E5,1.0079328E4,1.3223531E4,1.7725039E3,1.386343E3,2.0265254E3,6.026E3,1.7135728E2,9.9793555E2,3.0538647E2,7.4488184E2,5.0225684E2,1.2085791E3,2.2584688E3,1.109895E3,1.4815775E2,1.177254E2,3.6371387E2,5.8808594E2,1.2384338E2,7.649985E1,2.8625037E2,4.6072092E2,3.5386182E2,2.060022E2,2.3824963E2,9.013379E2,1.0445547E3,6.780039E2,6.931626E2,2.4700317E2,6.91615E1,1.1218433E2,8.440823E1,4.6244583E1,1.1315514E3,1.1643164E2,1.6958887E2,5.0512354E2,9.081958E1,1.1238368E2,6.81615E1,1.5057236E1,1.4900378E2,1.9797644E2,1.0419381E2,1.7636588E2,2.8058936E2,1.7488147E2,7.4671936E1,1.2119092E2,1.2979382E2,1.7797784E2,1.8639404E2,3.8313086E2,1.9909668E2,6.6693555E2,4.0308594E2,6.1781836E2,4.1457373E2,6.1948193E2,1.495586E2,8.12324E2,7.6392334E1,3.315779E1,3.451863E1,1.4885745E2,3.4586945E1,8.442127E0,1.8014765E-1,2.2064278E1,2.812331E1,0E0,5.570215E1,6.55542E1,1.6746973E2,9.5242676E1,3.686372E2,9.7427454E2,9.0743286E1,1.7067828E2,1.2461449E1,6.3564472E1,6.36344E1,1.840164E1,3.3399658E0,0E0,1.4658958E2,7.687074E1,1.3579822E2,1.6042717E2,4.301236E1,9.3945694E1,7.843829E1,7.228998E1,2.4413281E2,1.6852246E2,3.84271E2,2.8823358E2,2.1137163E1,6.7716675E1,1.1916223E2,1.1758722E2,2.0988599E2,2.5083872E1,1.670236E2,8.494904E1,3.2467957E2,1.12667725E2,2.6932837E2,1.370957E2,2.0378223E2,1.4403113E2,6.082988E2,3.69708E2,4.7931152E2,6.4488916E2,4.0019336E2,3.9741064E2,3.5375977E2,1.9348718E2,4.4341113E2,9.98062E2,1.0689369E2,5.950547E1,2.4844594E2,2.9983606E2,0E0,0E0,0E0,0E0,0E0,0E0,0E0,0E0,0E0,0E0,0E0,0E0,0E0,0E0,0E0,0E0,0E0,0E0,0E0,0E0,0E0,0E0,0E0,0E0,0E0,0E0,0E0,0E0,0E0,0E0,0E0,0E0,0E0,0E0,0E0,0E0,0E0,0E0,0E0,0E0,0E0,0E0,0E0,0E0,0E0,0E0,0E0,0E0,0E0,0E0,0E0,0E0,0E0,0E0,0E0,0E0,0E0,0E0,0E0,0E0,0E0,0E0,0E0,0E0,0E0,0E0,0E0,0E0,0E0,0E0,0E0,0E0,0E0,0E0,0E0,0E0,0E0,0E0,0E0,0E0,0E0,0E0,0E0,0E0,0E0,0E0,0E0,0E0,0E0,0E0,0E0,0E0,0E0,0E0,0E0,0E0,0E0,0E0,0E0,0E0,0E0,0E0,0E0,0E0,0E0,0E0,0E0,0E0,0E0,0E0,0E0,0E0,0E0,0E0,0E0,0E0,0E0,0E0,0E0,0E0,0E0,0E0,0E0,0E0],"parents":[2147483647,0,0,1,1,2,2,3,3,4,4,5,5,6,6,7,7,8,8,9,9,10,10,11,11,12,12,13,13,14,14,15,15,16,16,17,17,18,18,19,19,20,20,21,21,22,22,23,23,24,24,25,25,26,26,27,27,28,28,29,29,30,30,31,31,32,32,33,33,34,34,35,35,36,36,37,37,38,38,39,39,40,40,41,41,42,42,43,43,44,44,45,45,46,46,47,47,48,48,49,49,50,50,51,51,52,52,53,53,54,54,55,55,56,56,57,57,58,58,59,59,60,60,61,61,62,62,63,63,64,64,65,65,66,66,67,67,68,68,69,69,70,70,71,71,73,73,74,74,75,75,76,76,77,77,78,78,79,79,80,80,81,81,82,82,83,83,84,84,85,85,87,87,88,88,89,89,90,90,91,91,92,92,93,93,94,94,95,95,96,96,97,97,98,98,99,99,100,100,101,101,102,102,103,103,104,104,105,105,106,106,107,107,108,108,109,109,110,110,111,111,112,112,113,113,114,114,115,115,116,116,117,117,118,118,119,119,120,120,121,121,122,122,123,123,124,124,125,125,126,126],"right_children":[2,4,6,8,10,12,14,16,18,20,22,24,26,28,30,32,34,36,38,40,42,44,46,48,50,52,54,56,58,60,62,64,66,68,70,72,74,76,78,80,82,84,86,88,90,92,94,96,98,100,102,104,106,108,110,112,114,116,118,120,122,124,126,128,130,132,134,136,138,140,142,144,-1,146,148,150,152,154,156,158,160,162,164,166,168,170,-1,172,174,176,178,180,182,184,186,188,190,192,194,196,198,200,202,204,206,208,210,212,214,216,218,220,222,224,226,228,230,232,234,236,238,240,242,244,246,248,250,-1,-1,-1,-1,-1,-1,-1,-1,-1,-1,-1,-1,-1,-1,-1,-1,-1,-1,-1,-1,-1,-1,-1,-1,-1,-1,-1,-1,-1,-1,-1,-1,-1,-1,-1,-1,-1,-1,-1,-1,-1,-1,-1,-1,-1,-1,-1,-1,-1,-1,-1,-1,-1,-1,-1,-1,-1,-1,-1,-1,-1,-1,-1,-1,-1,-1,-1,-1,-1,-1,-1,-1,-1,-1,-1,-1,-1,-1,-1,-1,-1,-1,-1,-1,-1,-1,-1,-1,-1,-1,-1,-1,-1,-1,-1,-1,-1,-1,-1,-1,-1,-1,-1,-1,-1,-1,-1,-1,-1,-1,-1,-1,-1,-1,-1,-1,-1,-1,-1,-1,-1,-1,-1,-1],"split_conditions":[6.2E-1,5E-3,5.99E0,-8.660254E-1,-8.660254E-1,-8.660254E-1,2.2192152E-1,9.876999E1,1.5E1,1.6E1,-5.772916E-1,1.6E1,1.9E1,2.0994999E1,1.9E1,-9.9421793E-1,-9.899325E-1,-8.606997E-3,4.8571426E-2,2.2815E1,7.794501E1,-1.5430883E-1,1.25E-1,-8.717063E-1,2.04E0,2E1,2.205E0,-8.660254E-1,-8.900276E-1,2.7609697E-1,8.8406754E-1,1.5214285E0,7.142857E-4,2.2699997E1,-9.0701383E-1,3.1950002E0,-9.725E1,4.7983333E-1,9.966589E-1,3.8E1,3.6E1,1.50599985E1,-9.95919E-1,-8.013611E-1,-9.735E1,-8.9963084E-1,-8.4061843E-1,3.7E1,3.6E1,3.8E1,2.2699997E1,9.9421793E-1,-3.6572254E-1,-9.9167734E-1,-9.981855E-1,3.9E1,1.9667289E-1,9E0,-7.1767694E-1,4.4519993E1,9.1758364E-1,1.6724998E1,1.8E1,3.9E1,-9.9843544E-1,3.8E1,2.255E0,-9.922222E-1,-9.966589E-1,-9.755E1,-9.815E1,-2.5818441E-2,6.1555624E-2,5.8774994E1,5.012418E-1,-9.837093E-1,-9.990741E-1,1E0,6E0,-8.717063E-1,1.15E-1,-8.8805735E-1,-9.562348E-1,4E1,1.8E1,5.8198338E0,5.3204916E-4,3.5E1,-4.4822934E-1,7.602857E0,2.7370003E1,6.0142857E-1,6.9499993E-1,3.9999995E-2,2.5E1,3.505E0,-9.3688136E-1,3.46E0,1.2964286E0,2.0075E1,6.6645E1,-9.966589E-1,-9.721182E-1,9.562348E-1,1.5E1,2.5E1,5E-3,5.445E0,1.2449999E0,3E1,-6.994583E-1,1E1,-9.745E1,2E0,2E1,-8.59648E-2,-9.837093E-1,2.1E1,1E0,9.8594815E-1,4.7115952E-1,5E0,9.3688136E-1,2.1E1,5.947267E-1,1.18E0,8.9198136E-1,-6.6553033E-3,-1.294853E-4,-5.1352265E-3,-2.046825E-3,-1.099227E-3,-4.3335725E-3,1.8216217E-4,3.4523972E-3,-4.3215233E-4,5.4601945E-2,-6.7078685E-3,1.632262E-2,-6.7455983E-3,-2.5234078E-3,2.8285287E-2,2.314313E-3,8.568457E-3,-6.3612843E-3,-5.258754E-3,8.158655E-3,-2.9502013E-3,-4.6017882E-3,-7.3264755E-4,-4.9402374E-3,1.28416E-3,-3.7652715E-3,-2.609117E-3,-4.764632E-3,7.24477E-2,-6.542253E-3,1.1022726E-2,2.1746242E-2,4.6823364E-2,8.175122E-3,2.0069737E-2,5.671315E-2,1.863308E-2,-3.0676532E-3,6.170665E-3,-1.6450821E-3,5.3727035E-3,-3.3489063E-3,1.5239673E-2,4.522137E-2,1.7607428E-2,-5.756096E-3,-1.1818241E-4,2.634983E-3,6.705634E-3,9.7133167E-4,2.2001413E-3,1.4459612E-2,5.3125285E-3,7.0075004E-4,-1.2619843E-3,7.9955376E-4,2.668178E-3,6.382958E-3,1.6282356E-3,-3.903598E-4,1.4934256E-2,4.2711655E-3,1.709358E-2,2.5467202E-2,2.2258202E-2,6.2157653E-2,4.330927E-2,-4.868822E-3,-2.5804052E-3,3.2568086E-2,7.914913E-3,2.7908573E-2,6.962195E-3,1.4462071E-2,2.850118E-2,2.2912233E-3,4.3446994E-3,9.496427E-3,-2.1223228E-3,1.2492527E-2,2.091481E-2,4.2464454E-3,-1.6084969E-3,2.5740352E-3,1.465394E-2,4.1216429E-4,5.1376745E-3,7.1818754E-3,1.7213829E-2,4.2266954E-2,1.1862883E-2,9.253963E-3,2.0813243E-2,2.676787E-2,1.4235328E-2,2.4595201E-2,3.019456E-2,1.5422753E-2,2.9304603E-2,7.041538E-2,5.13418E-2,3.1647522E-2,1.880708E-2,3.5705622E-2,2.8508827E-2,2.1073665E-2,1.6634448E-2,4.9753122E-2,1.0462309E-2,-1.4936028E-3,5.3483468E-2,-2.3078418E-3,2.4538755E-2,1.0226644E-2,4.1956134E-2,1.4990705E-2,1.3359021E-3,8.736097E-3,1.4334396E-3,-4.57818E-3,2.4273798E-3,1.7539598E-2,4.777341E-2,1.1440597E-2],"split_indices":[8,8,8,2,2,2,4,9,7,6,5,6,7,8,6,4,4,4,13,9,11,4,8,4,8,6,8,2,5,5,4,13,13,11,4,9,1,14,4,7,7,9,4,4,1,4,4,7,7,7,11,4,5,5,5,7,4,6,4,9,4,8,7,7,4,7,11,4,4,1,1,4,0,11,4,5,5,3,6,4,11,4,4,7,6,14,0,7,4,13,9,13,9,11,6,14,4,9,13,11,11,4,4,4,7,6,9,13,8,6,4,6,1,6,6,4,5,6,5,4,4,6,4,7,4,11,4,0,0,0,0,0,0,0,0,0,0,0,0,0,0,0,0,0,0,0,0,0,0,0,0,0,0,0,0,0,0,0,0,0,0,0,0,0,0,0,0,0,0,0,0,0,0,0,0,0,0,0,0,0,0,0,0,0,0,0,0,0,0,0,0,0,0,0,0,0,0,0,0,0,0,0,0,0,0,0,0,0,0,0,0,0,0,0,0,0,0,0,0,0,0,0,0,0,0,0,0,0,0,0,0,0,0,0,0,0,0,0,0,0,0,0,0,0,0,0,0,0,0,0,0],"split_type":[0,0,0,0,0,0,0,0,0,0,0,0,0,0,0,0,0,0,0,0,0,0,0,0,0,0,0,0,0,0,0,0,0,0,0,0,0,0,0,0,0,0,0,0,0,0,0,0,0,0,0,0,0,0,0,0,0,0,0,0,0,0,0,0,0,0,0,0,0,0,0,0,0,0,0,0,0,0,0,0,0,0,0,0,0,0,0,0,0,0,0,0,0,0,0,0,0,0,0,0,0,0,0,0,0,0,0,0,0,0,0,0,0,0,0,0,0,0,0,0,0,0,0,0,0,0,0,0,0,0,0,0,0,0,0,0,0,0,0,0,0,0,0,0,0,0,0,0,0,0,0,0,0,0,0,0,0,0,0,0,0,0,0,0,0,0,0,0,0,0,0,0,0,0,0,0,0,0,0,0,0,0,0,0,0,0,0,0,0,0,0,0,0,0,0,0,0,0,0,0,0,0,0,0,0,0,0,0,0,0,0,0,0,0,0,0,0,0,0,0,0,0,0,0,0,0,0,0,0,0,0,0,0,0,0,0,0,0,0,0,0,0,0,0,0,0,0,0,0,0,0],"sum_hessian":[1.255995E6,1.022936E6,2.33059E5,8.4509E5,1.77846E5,1.36653E5,9.6406E4,5.4072E4,7.91018E5,1.1954E4,1.65892E5,2.0135E4,1.16518E5,6.7862E4,2.8544E4,5.3846E4,2.26E2,2.32406E5,5.58612E5,6.079E3,5.875E3,4.5677E4,1.20215E5,1.0645E4,9.49E3,3.338E4,8.3138E4,4.3981E4,2.3881E4,1.9254E4,9.29E3,1.3297E4,4.0549E4,1.01E2,1.25E2,5.84E2,2.31822E5,2.50273E5,3.08339E5,5.58E3,4.99E2,5.846E3,2.9E1,1.7566E4,2.8111E4,6.9413E4,5.0802E4,1.0049E4,5.96E2,4.76E3,4.73E3,2.2846E4,1.0534E4,4.679E4,3.6348E4,1.2114E4,3.1867E4,5.811E3,1.807E4,1.2197E4,7.057E3,5.796E3,3.494E3,7.686E3,5.611E3,6.861E3,3.3688E4,5.5E1,4.6E1,7.1E1,5.4E1,4.5E2,1.34E2,1.83916E5,4.7906E4,1.00816E5,1.49457E5,3.0808E5,2.59E2,5.396E3,1.84E2,2.1E1,4.78E2,5.243E3,6.03E2,2.5E1,4E0,5.54E2,1.7012E4,1.5837E4,1.2274E4,3.289E3,6.6124E4,9.338E3,4.1464E4,5.223E3,4.826E3,3.96E2,2E2,3.17E2,4.443E3,4.29E3,4.4E2,2.1656E4,1.19E3,2.197E3,8.337E3,3.344E3,4.3446E4,1.482E3,3.4866E4,9.77E3,2.344E3,3.1425E4,4.42E2,2.179E3,3.632E3,1.3371E4,4.699E3,1.2043E4,1.54E2,4.801E3,2.256E3,3.152E3,2.644E3,3.092E3,4.02E2,8E2,6.886E3,3.057E3,2.554E3,5.078E3,1.783E3,2.6651E4,7.037E3,5E0,5E1,7E0,3.9E1,6.5E1,6E0,3.2E1,2.2E1,5.7E1,3.93E2,1.83793E5,1.23E2,1.3325E4,3.4581E4,3.938E3,9.6878E4,1.509E3,1.47948E5,2.72153E5,3.5927E4,1.03E2,1.56E2,5.059E3,3.37E2,8.4E1,1E2,7E0,1.4E1,6.1E1,4.17E2,4.787E3,4.56E2,1.2E2,4.83E2,3E0,2.2E1,4.09E2,1.45E2,1.0336E4,6.676E3,1.3963E4,1.874E3,1.1832E4,4.42E2,1.434E3,1.855E3,5.5611E4,1.0513E4,5.418E3,3.92E3,3.2376E4,9.088E3,4.138E3,1.085E3,3.49E3,1.336E3,2.26E2,1.7E2,8.8E1,1.12E2,3.11E2,6E0,4.375E3,6.8E1,1.167E3,3.123E3,3.55E2,8.5E1,1.7809E4,3.847E3,1.142E3,4.8E1,2.74E2,1.923E3,5.258E3,3.079E3,2.481E3,8.63E2,2.3446E4,2E4,1.284E3,1.98E2,1.2691E4,2.2175E4,3.77E3,6E3,1.503E3,8.41E2,1.158E3,3.0267E4,3.21E2,1.21E2,7.69E2,1.41E3,1.721E3,1.911E3,9.098E3,4.273E3,4.55E3,1.49E2,1.0955E4,1.088E3,1.23E2,3.1E1,1.134E3,3.667E3,9.47E2,1.309E3,1.728E3,1.424E3,1.236E3,1.408E3,2.569E3,5.23E2,2.62E2,1.4E2],"tree_param":{"num_deleted":"0","num_feature":"15","num_nodes":"251","size_leaf_vector":"1"}},{"base_weights":[7.0281205E-4,-1.299192E-1,6.031595E-1,-1.7592293E-1,9.494996E-2,4.1801545E-1,8.860885E-1,-2.4467644E-3,-1.8762867E-1,4.0444687E-1,7.022654E-2,7.181462E-1,3.64774E-1,5.19462E-1,1.0475638E0,3.0559326E-2,-1.0345704E-1,-2.3982054E-1,-1.655895E-1,5.4924506E-1,2.5147894E-1,1.7386736E-1,2.903127E-2,1.5854921E0,6.9310343E-1,1.989907E-1,4.3014225E-1,3.6368266E-1,7.6352906E-1,9.322876E-1,1.281114E0,7.212948E-3,1.7319423E-1,-5.044575E-2,-1.8507938E-1,8.940402E-2,-2.4233687E-1,-2.0048547E-1,-1.3521662E-1,1.0678401E0,5.172516E-1,2.4212784E-1,1.440614E0,2.3707582E-1,8.2915865E-2,-1.8386777E-2,1.08378686E-1,1.2752186E0,3.0885272E0,6.14399E-1,8.926358E-1,2.566932E-1,7.08563E-2,3.418704E-1,5.5378956E-1,2.9934987E-1,8.1040233E-1,6.288254E-1,1.386656E0,1.1776699E0,8.3526486E-1,1.3325473E0,8.253039E-1,4.8668668E-2,-6.6593654E-2,9.7817E-2,5.9682834E-1,-3.25104E-1,-1.8818824E-2,-1.0469635E-1,-2.5056106E-1,-1.5203504E-1,2.208364E0,-2.542912E-1,-1.9742782E-1,-1.8957885E-1,-2.5563076E-1,-1.2312421E-1,-2.2784564E-1,9.035317E-1,3.1363723E0,4.9067712E-1,1.1950744E0,3.3646405E-1,1.4628619E-1,-1.0264274E-1,2.0608494E0,2.9658544E-1,1.3217509E-1,6.762953E-2,5.465569E-1,9.831251E-2,-3.061136E-2,2.1913546E-1,8.0035575E-2,1.4637383E0,6.723419E-1,3.4571347E0,-1.0759812E-1,7.532466E-1,4.7071195E-1,9.6869606E-1,6.380176E-1,2.7354217E-1,-1.5415506E-1,3.0067784E-1,1.1341637E-2,6.947385E-1,3.320239E-1,1.015457E0,5.32713E-1,5.815137E-1,2.5270438E-1,9.984114E-1,2.3612076E-2,7.613562E-1,9.364246E-2,1.7908094E0,1.0373139E0,1.2427433E0,9.0603787E-1,1.4469309E0,8.1369555E-1,1.5626045E0,1.223607E0,-9.236904E-3,9.368565E-1,5.3092667E-6,4.2771525E-3,-7.1481307E-4,-4.5305556E-3,1.0292303E-3,1.1160689E-2,-8.407818E-4,2.7206818E-2,-6.8812477E-3,-5.7341335E-3,-2.460232E-3,9.2687627E-4,-5.9483116E-3,-8.992319E-4,-5.141418E-3,2.0312052E-2,1.003634E-2,-3.5487947E-3,5.7555746E-2,-4.2594145E-3,-5.1385057E-3,-2.6722287E-3,-4.344653E-3,-2.8867787E-3,3.3497598E-3,-3.8245812E-3,-5.2080047E-3,-6.728283E-4,-1.4443733E-3,-2.799121E-3,-5.2457284E-3,-2.94605E-3,1.1462344E-2,2.895059E-2,7.4819634E-3,6.905763E-2,1.2065344E-2,6.9195232E-3,4.6748064E-2,8.448487E-3,-4.928146E-4,8.175537E-3,2.6206574E-3,2.079211E-2,1.559915E-3,-6.404579E-3,4.431792E-2,1.3747795E-2,6.5105646E-3,8.020345E-4,6.0683703E-3,1.7502719E-3,3.0442283E-3,1.408472E-4,1.681599E-2,-5.9309336E-3,7.5059145E-4,3.943726E-3,-1.0483034E-3,5.860115E-4,2.8133588E-3,6.705597E-3,2.1286902E-3,-5.0853833E-4,2.2010628E-2,3.5210337E-2,2.0180413E-2,2.9077667E-3,3.3085406E-2,7.339578E-2,4.8703575E-3,-6.860482E-3,1.1457483E-2,1.8873526E-2,8.441261E-3,2.0003157E-2,1.7862229E-2,2.8376028E-2,7.174301E-3,1.5700238E-2,2.5551848E-2,5.27933E-3,-4.7481274E-3,3.7286913E-3,2.1144819E-2,4.032339E-3,-1.271826E-4,2.2213021E-2,1.021452E-2,2.9068189E-2,5.7291714E-3,7.7590114E-3,1.7393E-2,3.9464418E-2,1.0183731E-2,1.3414708E-2,1.8706743E-2,4.5769317E-3,6.702635E-3,4.8216907E-4,2.4559474E-2,1.6935859E-3,-3.459703E-3,1.5625855E-2,1.7376332E-2,6.7190086E-3,9.0041416E-5,4.660375E-2,2.3098439E-2,5.400627E-2,1.7574582E-2,4.933781E-2,2.1365505E-2,2.700375E-2,1.3023529E-2,2.3099253E-2,2.3204952E-2,5.922797E-2,1.7657856E-2,1.1470007E-2,2.5928428E-2,3.9697796E-2,1.5711792E-2,2.5506236E-2,-2.324376E-3,1.6404055E-2,4.9444623E-2,1.6749674E-2],"categories":[],"categories_nodes":[],"categories_segments":[],"categories_sizes":[],"default_left":[0,0,0,0,0,0,0,0,0,0,0,0,0,0,0,0,0,0,0,0,0,0,0,0,0,0,0,0,0,0,0,0,0,0,0,0,0,0,0,0,0,0,0,0,0,0,0,0,0,0,0,0,0,0,0,0,0,0,0,0,0,0,0,0,0,0,0,0,0,0,0,0,0,0,0,0,0,0,0,0,0,0,0,0,0,0,0,0,0,0,0,0,0,0,0,0,0,0,0,0,0,0,0,0,0,0,0,0,0,0,0,0,0,0,0,0,0,0,0,0,0,0,0,0,0,0,0,0,0,0,0,0,0,0,0,0,0,0,0,0,0,0,0,0,0,0,0,0,0,0,0,0,0,0,0,0,0,0,0,0,0,0,0,0,0,0,0,0,0,0,0,0,0,0,0,0,0,0,0,0,0,0,0,0,0,0,0,0,0,0,0,0,0,0,0,0,0,0,0,0,0,0,0,0,0,0,0,0,0,0,0,0,0,0,0,0,0,0,0,0,0,0,0,0,0,0,0,0,0,0,0,0,0,0,0,0,0,0,0,0,0,0,0,0,0,0,0,0,0,0,0,0,0,0,0],"id":3,"left_children":[1,3,5,7,9,11,13,15,17,19,21,23,25,27,29,31,33,35,37,39,41,43,45,47,49,51,53,55,57,59,61,63,65,67,69,71,73,75,77,79,81,83,85,87,89,91,93,95,97,99,101,103,105,107,109,111,113,115,117,119,121,123,125,127,129,131,133,135,137,139,141,143,145,147,149,151,153,155,157,159,161,163,165,167,169,171,173,175,177,179,181,183,185,187,189,191,193,195,197,199,201,203,205,207,209,211,213,215,217,219,221,223,225,227,229,231,233,235,237,239,241,243,245,247,249,251,253,-1,-1,-1,-1,-1,-1,-1,-1,-1,-1,-1,-1,-1,-1,-1,-1,-1,-1,-1,-1,-1,-1,-1,-1,-1,-1,-1,-1,-1,-1,-1,-1,-1,-1,-1,-1,-1,-1,-1,-1,-1,-1,-1,-1,-1,-1,-1,-1,-1,-1,-1,-1,-1,-1,-1,-1,-1,-1,-1,-1,-1,-1,-1,-1,-1,-1,-1,-1,-1,-1,-1,-1,-1,-1,-1,-1,-1,-1,-1,-1,-1,-1,-1,-1,-1,-1,-1,-1,-1,-1,-1,-1,-1,-1,-1,-1,-1,-1,-1,-1,-1,-1,-1,-1,-1,-1,-1,-1,-1,-1,-1,-1,-1,-1,-1,-1,-1,-1,-1,-1,-1,-1,-1,-1,-1,-1,-1,-1],"loss_changes":[9.881171E4,1.0674926E4,1.1719406E4,1.7395801E3,1.3409915E3,2.1607773E3,5.2385156E3,1.8054346E2,9.2305273E2,2.870078E2,6.929026E2,4.4146094E2,1.2447031E3,1.0285977E3,1.6528359E3,1.3591638E2,5.7698593E1,1.9740625E2,5.9800977E2,1.0993152E2,6.9772064E1,2.653496E2,4.3695233E2,2.623484E2,3.104707E2,2.4016528E2,8.9896387E2,4.74521E2,8.839971E2,9.783906E2,4.748086E2,1.0732549E2,1.8326534E2,7.0242386E1,2.7613037E1,9.253081E2,1.2689258E2,1.5787402E2,3.3788135E2,1.2835886E2,1.12426025E2,5.6531464E1,4.711348E1,1.699657E2,1.3411282E2,1.03706856E2,1.3635205E2,5.3001587E1,1.1464917E2,2.8306348E2,1.07833496E2,1.5508923E2,1.3797777E2,1.6678613E2,3.333369E2,1.8993384E2,3.075099E2,6.1487646E2,2.6258716E2,2.0486914E2,3.878125E2,4.5522656E2,1.9187793E2,1.7959079E2,6.2244892E1,1.0397261E2,4.229653E2,5.091858E-1,4.924977E1,2.714352E1,2.4106766E1,2.7065159E1,3.0047882E2,5.932617E1,5.2238647E1,1.2920215E2,4.5891846E1,2.2863037E2,9.658972E1,6.369873E1,2.3188232E1,9.817786E1,2.0731107E2,8.234277E1,4.218641E1,6.1454326E-1,5.930084E0,1.289679E2,7.537494E1,9.390679E1,1.5008786E2,4.141842E1,8.595796E1,8.0616974E1,9.6307434E1,3.697534E1,2.0255917E1,2.7283813E1,9.928125E-1,2.4755713E2,1.7946436E2,1.4536377E2,5.2721558E1,2.0652734E2,2.508132E1,1.5529941E2,1.5594846E2,1.8130261E2,1.1906348E2,2.0733813E2,1.062207E2,2.5533936E2,2.3354553E2,3.5187085E2,6.0016243E1,3.1737622E2,3.432986E2,4.9830396E2,2.2612842E2,1.7474902E2,1.4237158E2,4.3203882E2,4.7288867E2,6.558965E2,2.794453E2,2.1746672E1,2.7530994E2,0E0,0E0,0E0,0E0,0E0,0E0,0E0,0E0,0E0,0E0,0E0,0E0,0E0,0E0,0E0,0E0,0E0,0E0,0E0,0E0,0E0,0E0,0E0,0E0,0E0,0E0,0E0,0E0,0E0,0E0,0E0,0E0,0E0,0E0,0E0,0E0,0E0,0E0,0E0,0E0,0E0,0E0,0E0,0E0,0E0,0E0,0E0,0E0,0E0,0E0,0E0,0E0,0E0,0E0,0E0,0E0,0E0,0E0,0E0,0E0,0E0,0E0,0E0,0E0,0E0,0E0,0E0,0E0,0E0,0E0,0E0,0E0,0E0,0E0,0E0,0E0,0E0,0E0,0E0,0E0,0E0,0E0,0E0,0E0,0E0,0E0,0E0,0E0,0E0,0E0,0E0,0E0,0E0,0E0,0E0,0E0,0E0,0E0,0E0,0E0,0E0,0E0,0E0,0E0,0E0,0E0,0E0,0E0,0E0,0E0,0E0,0E0,0E0,0E0,0E0,0E0,0E0,0E0,0E0,0E0,0E0,0E0,0E0,0E0,0E0,0E0,0E0,0E0],"parents":[2147483647,0,0,1,1,2,2,3,3,4,4,5,5,6,6,7,7,8,8,9,9,10,10,11,11,12,12,13,13,14,14,15,15,16,16,17,17,18,18,19,19,20,20,21,21,22,22,23,23,24,24,25,25,26,26,27,27,28,28,29,29,30,30,31,31,32,32,33,33,34,34,35,35,36,36,37,37,38,38,39,39,40,40,41,41,42,42,43,43,44,44,45,45,46,46,47,47,48,48,49,49,50,50,51,51,52,52,53,53,54,54,55,55,56,56,57,57,58,58,59,59,60,60,61,61,62,62,63,63,64,64,65,65,66,66,67,67,68,68,69,69,70,70,71,71,72,72,73,73,74,74,75,75,76,76,77,77,78,78,79,79,80,80,81,81,82,82,83,83,84,84,85,85,86,86,87,87,88,88,89,89,90,90,91,91,92,92,93,93,94,94,95,95,96,96,97,97,98,98,99,99,100,100,101,101,102,102,103,103,104,104,105,105,106,106,107,107,108,108,109,109,110,110,111,111,112,112,113,113,114,114,115,115,116,116,117,117,118,118,119,119,120,120,121,121,122,122,123,123,124,124,125,125,126,126],"right_children":[2,4,6,8,10,12,14,16,18,20,22,24,26,28,30,32,34,36,38,40,42,44,46,48,50,52,54,56,58,60,62,64,66,68,70,72,74,76,78,80,82,84,86,88,90,92,94,96,98,100,102,104,106,108,110,112,114,116,118,120,122,124,126,128,130,132,134,136,138,140,142,144,146,148,150,152,154,156,158,160,162,164,166,168,170,172,174,176,178,180,182,184,186,188,190,192,194,196,198,200,202,204,206,208,210,212,214,216,218,220,222,224,226,228,230,232,234,236,238,240,242,244,246,248,250,252,254,-1,-1,-1,-1,-1,-1,-1,-1,-1,-1,-1,-1,-1,-1,-1,-1,-1,-1,-1,-1,-1,-1,-1,-1,-1,-1,-1,-1,-1,-1,-1,-1,-1,-1,-1,-1,-1,-1,-1,-1,-1,-1,-1,-1,-1,-1,-1,-1,-1,-1,-1,-1,-1,-1,-1,-1,-1,-1,-1,-1,-1,-1,-1,-1,-1,-1,-1,-1,-1,-1,-1,-1,-1,-1,-1,-1,-1,-1,-1,-1,-1,-1,-1,-1,-1,-1,-1,-1,-1,-1,-1,-1,-1,-1,-1,-1,-1,-1,-1,-1,-1,-1,-1,-1,-1,-1,-1,-1,-1,-1,-1,-1,-1,-1,-1,-1,-1,-1,-1,-1,-1,-1,-1,-1,-1,-1,-1,-1],"split_conditions":[7.3E-1,1E-2,6.9049997E0,-8.660254E-1,-8.660254E-1,-8.660254E-1,2.4E1,-9.882014E-2,1.5E1,1.6E1,-5.772916E-1,-4.7495106E-1,1.9E1,2.7609697E-1,2.3815E1,5.035E0,1.9035715E0,1.2246469E-16,6.357143E-2,-4.7495106E-1,6.6645E1,2.8E1,1.95E-1,7.5E-1,3.85E0,2E1,2.6599998E0,1.6949999E0,2.8770006E1,-8.660254E-1,7.383264E-1,1.6E1,-1.3301471E-1,3.9E1,-4.7321387E-2,2.0835714E0,-9.725E1,8.3355576E-1,1E0,2.27E0,3.8E1,-1.159346E-1,-8.1676394E-2,-9.725E1,-5.9126145E-1,-5E-1,-5E-1,-9.725E1,3.6E1,1.6E1,8.526428E0,1.8E1,-3.6572254E-1,-9.990741E-1,-9.981855E-1,-8.653073E-1,-3.8168922E-1,2E1,1.1E1,3.9E1,2E0,1.1E1,7.829801E-1,1.2E1,1.6200001E0,1.0649999E0,3.772143E0,-9.755E1,1.3571428E-2,3.8995E0,2.8501427E1,9.998518E-1,1E0,5E-3,8.695894E-1,-9.9966663E-1,5.3E1,2.3E1,-9.725E1,2.1636667E0,2.4857142E0,2.74E0,1.15E-1,3.8E1,3.865E1,-1.8399835E-1,1.0387857E1,8.526428E0,-9.9167734E-1,-8.900276E-1,3.5E1,1.14999995E-1,-9.715E1,3.9999995E-2,2.5E1,1.3123333E0,3.6E1,7.357143E-1,5.865714E0,3.7E1,2.2699997E1,8.185E0,-2.843592E-1,-3.008198E-1,1.4535716E0,2.5E1,2.4894997E1,3E1,1.495E0,3E1,5.476333E0,5E0,7.2035723E0,2.6E1,-9.705E1,1.8499999E-1,1E0,9E0,1E0,-3.4964746E-1,8.0999994E-1,1E0,7.0252746E-1,7E0,-9.837093E-1,-9.695E1,8.0392796E-1,5.3092667E-6,4.2771525E-3,-7.1481307E-4,-4.5305556E-3,1.0292303E-3,1.1160689E-2,-8.407818E-4,2.7206818E-2,-6.8812477E-3,-5.7341335E-3,-2.460232E-3,9.2687627E-4,-5.9483116E-3,-8.992319E-4,-5.141418E-3,2.0312052E-2,1.003634E-2,-3.5487947E-3,5.7555746E-2,-4.2594145E-3,-5.1385057E-3,-2.6722287E-3,-4.344653E-3,-2.8867787E-3,3.3497598E-3,-3.8245812E-3,-5.2080047E-3,-6.728283E-4,-1.4443733E-3,-2.799121E-3,-5.2457284E-3,-2.94605E-3,1.1462344E-2,2.895059E-2,7.4819634E-3,6.905763E-2,1.2065344E-2,6.9195232E-3,4.6748064E-2,8.448487E-3,-4.928146E-4,8.175537E-3,2.6206574E-3,2.079211E-2,1.559915E-3,-6.404579E-3,4.431792E-2,1.3747795E-2,6.5105646E-3,8.020345E-4,6.0683703E-3,1.7502719E-3,3.0442283E-3,1.408472E-4,1.681599E-2,-5.9309336E-3,7.5059145E-4,3.943726E-3,-1.0483034E-3,5.860115E-4,2.8133588E-3,6.705597E-3,2.1286902E-3,-5.0853833E-4,2.2010628E-2,3.5210337E-2,2.0180413E-2,2.9077667E-3,3.3085406E-2,7.339578E-2,4.8703575E-3,-6.860482E-3,1.1457483E-2,1.8873526E-2,8.441261E-3,2.0003157E-2,1.7862229E-2,2.8376028E-2,7.174301E-3,1.5700238E-2,2.5551848E-2,5.27933E-3,-4.7481274E-3,3.7286913E-3,2.1144819E-2,4.032339E-3,-1.271826E-4,2.2213021E-2,1.021452E-2,2.9068189E-2,5.7291714E-3,7.7590114E-3,1.7393E-2,3.9464418E-2,1.0183731E-2,1.3414708E-2,1.8706743E-2,4.5769317E-3,6.702635E-3,4.8216907E-4,2.4559474E-2,1.6935859E-3,-3.459703E-3,1.5625855E-2,1.7376332E-2,6.7190086E-3,9.0041416E-5,4.660375E-2,2.3098439E-2,5.400627E-2,1.7574582E-2,4.933781E-2,2.1365505E-2,2.700375E-2,1.3023529E-2,2.3099253E-2,2.3204952E-2,5.922797E-2,1.7657856E-2,1.1470007E-2,2.5928428E-2,3.9697796E-2,1.5711792E-2,2.5506236E-2,-2.324376E-3,1.6404055E-2,4.9444623E-2,1.6749674E-2],"split_indices":[8,8,8,2,2,2,7,5,7,6,5,5,7,5,8,11,13,2,13,5,11,7,8,12,8,6,8,11,8,2,5,6,5,7,5,13,1,5,3,12,7,5,5,1,5,2,2,1,7,6,13,7,5,5,5,5,5,6,6,7,6,6,5,6,12,12,13,1,13,14,13,5,5,8,5,5,7,7,1,14,13,14,11,7,11,5,13,13,5,5,7,11,1,11,6,14,7,13,13,7,11,11,5,5,13,6,12,6,8,6,14,6,13,6,1,11,5,6,5,5,11,3,5,6,5,1,5,0,0,0,0,0,0,0,0,0,0,0,0,0,0,0,0,0,0,0,0,0,0,0,0,0,0,0,0,0,0,0,0,0,0,0,0,0,0,0,0,0,0,0,0,0,0,0,0,0,0,0,0,0,0,0,0,0,0,0,0,0,0,0,0,0,0,0,0,0,0,0,0,0,0,0,0,0,0,0,0,0,0,0,0,0,0,0,0,0,0,0,0,0,0,0,0,0,0,0,0,0,0,0,0,0,0,0,0,0,0,0,0,0,0,0,0,0,0,0,0,0,0,0,0,0,0,0,0],"split_type":[0,0,0,0,0,0,0,0,0,0,0,0,0,0,0,0,0,0,0,0,0,0,0,0,0,0,0,0,0,0,0,0,0,0,0,0,0,0,0,0,0,0,0,0,0,0,0,0,0,0,0,0,0,0,0,0,0,0,0,0,0,0,0,0,0,0,0,0,0,0,0,0,0,0,0,0,0,0,0,0,0,0,0,0,0,0,0,0,0,0,0,0,0,0,0,0,0,0,0,0,0,0,0,0,0,0,0,0,0,0,0,0,0,0,0,0,0,0,0,0,0,0,0,0,0,0,0,0,0,0,0,0,0,0,0,0,0,0,0,0,0,0,0,0,0,0,0,0,0,0,0,0,0,0,0,0,0,0,0,0,0,0,0,0,0,0,0,0,0,0,0,0,0,0,0,0,0,0,0,0,0,0,0,0,0,0,0,0,0,0,0,0,0,0,0,0,0,0,0,0,0,0,0,0,0,0,0,0,0,0,0,0,0,0,0,0,0,0,0,0,0,0,0,0,0,0,0,0,0,0,0,0,0,0,0,0,0,0,0,0,0,0,0,0,0,0,0,0,0,0,0,0,0,0,0],"sum_hessian":[1.255641E6,1.031908E6,2.23733E5,8.56654E5,1.75254E5,1.35238E5,8.8495E4,5.4151E4,8.02503E5,1.2963E4,1.62291E5,2.0374E4,1.14864E5,2.706E4,6.1435E4,4.0815E4,1.3336E4,2.3826E5,5.64243E5,6.658E3,6.305E3,4.6159E4,1.16132E5,5.7E2,1.9804E4,3.2484E4,8.238E4,1.6519E4,1.0541E4,4.1136E4,2.0299E4,3.5075E4,5.74E3,8.086E3,5.25E3,1.807E3,2.36453E5,2.62568E5,3.01675E5,3.85E2,6.273E3,6.257E3,4.8E1,2.7232E4,1.8927E4,7.2692E4,4.344E4,4.74E2,9.6E1,1.4205E4,5.599E3,2.2397E4,1.0087E4,4.8068E4,3.4312E4,1.4441E4,2.078E3,8.669E3,1.872E3,1.1653E4,2.9483E4,1.8239E4,2.06E3,2.246E4,1.2615E4,4.874E3,8.66E2,8.34E2,7.252E3,2.358E3,2.892E3,1.623E3,1.84E2,1.8674E5,4.9713E4,2.19216E5,4.3352E4,2.66842E5,3.4833E4,3.58E2,2.7E1,6.038E3,2.35E2,3.152E3,3.105E3,1.4E1,3.4E1,1.7374E4,9.858E3,1.8324E4,6.03E2,6.892E3,6.58E4,8.85E3,3.459E4,3.6E2,1.14E2,8.6E1,1E1,7.222E3,6.983E3,4.309E3,1.29E3,2.1515E4,8.82E2,2.074E3,8.013E3,1.303E3,4.6765E4,1.496E3,3.2816E4,2.047E3,1.2394E4,1.677E3,4.01E2,6.948E3,1.721E3,8.66E2,1.006E3,9.398E3,2.255E3,1.002E3,2.8481E4,5.857E3,1.2382E4,2.43E2,1.817E3,1.7371E4,5.089E3,1.0576E4,2.039E3,4.429E3,4.45E2,4.72E2,3.94E2,5.53E2,2.81E2,2.79E3,4.462E3,5.57E2,1.801E3,2.878E3,1.4E1,6E1,1.563E3,1.44E2,4E1,1.8275E5,3.99E3,3.6204E4,1.3509E4,1.008E3,2.18208E5,4.244E4,9.12E2,6.6308E4,2.00534E5,2.4398E4,1.0435E4,2.24E2,1.34E2,3E0,2.4E1,3.394E3,2.644E3,9.4E1,1.41E2,5.26E2,2.626E3,3.054E3,5.1E1,8E0,6E0,3E1,4E0,1.5612E4,1.762E3,2.038E3,7.82E3,7.647E3,1.0677E4,4.47E2,1.56E2,4.269E3,2.623E3,4.8243E4,1.7557E4,5.283E3,3.567E3,2.7665E4,6.925E3,1.64E2,1.96E2,6.9E1,4.5E1,1E1,7.6E1,4E0,6E0,3.711E3,3.511E3,6.397E3,5.86E2,3.692E3,6.17E2,4.46E2,8.44E2,2.02E2,2.1313E4,7.09E2,1.73E2,2.39E2,1.835E3,7.887E3,1.26E2,1.05E3,2.53E2,2.5773E4,2.0992E4,1.3E3,1.96E2,2.8041E4,4.775E3,1.021E3,1.026E3,9.109E3,3.285E3,1.34E3,3.37E2,3.19E2,8.2E1,5.546E3,1.402E3,1.656E3,6.5E1,5.11E2,3.55E2,9.07E2,9.9E1,3.586E3,5.812E3,1.116E3,1.139E3,8.44E2,1.58E2,2.2109E4,6.372E3,3.595E3,2.262E3,1.309E3,1.1073E4,2.16E2,2.7E1,1.09E2,1.708E3],"tree_param":{"num_deleted":"0","num_feature":"15","num_nodes":"255","size_leaf_vector":"1"}},{"base_weights":[3.8197465E-4,-1.3255088E-1,5.654045E-1,-1.7403173E-1,7.1823105E-2,3.73542E-1,8.4228396E-1,-7.918763E-2,-1.9087291E-1,2.7256212E-1,4.027243E-2,1.7454442E-1,4.3817836E-1,9.974965E-1,4.7285628E-1,-2.859072E-3,-1.3873167E-1,-2.3822379E-1,-1.6813001E-1,4.4760188E-1,1.6172947E-1,1.6234766E-1,-2.1807358E-3,2.3137017E-1,5.2174017E-2,3.340851E-1,5.529966E-1,8.439748E-1,1.2044797E0,6.0162044E-1,2.0662187E-1,-6.551777E-3,8.565643E-1,-9.444631E-2,-1.7856896E-1,5.783928E-1,-2.4027197E-1,-2.002186E-1,-1.3140318E-1,6.649872E-1,3.9034384E-1,8.7996006E-2,2.4901356E-1,1.9286288E-1,-6.545877E-2,-4.203505E-2,6.940574E-2,2.4963258E-1,-8.70938E-2,-1.6071561E-1,1.05178796E-1,4.3055522E-1,2.8300214E-1,6.486686E-1,4.6287426E-1,9.7715324E-1,6.8668294E-1,1.4411293E0,1.1276133E0,4.662227E-1,8.0630314E-1,8.903076E-2,4.00581E-1,-6.300015E-2,3.7069675E-2,1.2977291E0,-2.719197E-1,-1.6889949E-1,-3.8783785E-2,-1.8111463E-1,1.3949546E0,-2.0323494E-1,6.014547E-2,-2.5171453E-1,-1.962503E-1,-1.8989456E-1,-2.5150186E-1,-1.3284473E-1,1.5394725E0,7.386351E-1,-1.4328918E-1,4.2492536E-1,-1.3634734E-2,1.2588166E-1,-8.584912E-2,3.3350307E-1,1.1139288E-1,1.6061799E-1,3.8232973E-1,-1.1993302E-1,4.2148137E-1,-4.907123E-2,1.15537114E-1,3.833413E-2,1.0880641E-1,2.064157E-1,4.4646063E-1,-1.1540403E-1,4.8239502E-1,-2.8011918E-1,-1.00494124E-1,-3.4450837E-3,2.837499E-1,5.920103E-1,3.0622318E-1,3.8907054E-1,2.3680305E-1,7.8248185E-1,5.204999E-1,2.1873142E-1,5.0083876E-1,1.1031106E0,8.35766E-1,6.574972E-1,1.9389468E0,1.8596742E0,1.2512975E0,1.2426802E0,8.032981E-1,4.4596642E-1,2.0627482E0,6.539748E-1,1.2674503E0,2.3479009E-1,-8.858516E-2,2.2921261E-1,1.7445949E0,-2.2045046E-3,1.7854986E-4,2.3006026E-4,3.1151297E-3,1.8672628E-2,5.030913E-2,-6.6582863E-3,4.543086E-3,-4.205373E-3,-1.1609884E-3,1.3051895E-2,-1.2228477E-3,-5.379767E-3,-3.149786E-3,-4.266989E-3,4.8878897E-2,9.092821E-3,-6.115316E-3,-5.373843E-3,-4.699412E-3,-2.7947407E-3,-4.355393E-3,-4.1228742E-3,-3.2518283E-3,-5.125981E-3,9.859268E-3,-1.4323675E-3,-3.0886205E-3,7.053699E-2,-6.142502E-3,1.13184275E-2,1.9092683E-2,9.430804E-3,-4.1267765E-3,1.0355213E-2,6.450816E-3,4.5524877E-3,-4.172051E-3,3.4727736E-3,-2.3990658E-3,-3.1464496E-3,1.8864402E-3,1.3932582E-2,5.787299E-3,-2.6651402E-3,3.7748336E-3,4.7051795E-3,1.2873805E-3,6.103608E-3,3.3021003E-2,-2.9076925E-3,9.284264E-3,5.5631585E-2,4.8473338E-3,-1.2099907E-3,6.040929E-4,-5.8037345E-4,6.4807753E-3,7.317279E-4,5.19452E-2,2.5097344E-3,-9.631165E-4,8.887425E-3,3.13964E-3,2.133545E-2,5.5794907E-3,-4.7700913E-3,1.1365062E-3,6.2476892E-2,-5.9615527E-3,-6.374754E-3,-1.7883964E-3,6.343119E-4,-4.347432E-3,-9.5073896E-4,1.1330087E-2,1.1900146E-2,2.3431184E-3,1.4075426E-2,8.25163E-3,4.3516494E-3,8.338767E-3,8.591434E-3,2.2724539E-3,5.0137583E-3,-2.2651914E-3,1.7147783E-2,1.0776192E-2,9.379629E-3,1.5392776E-2,1.9930406E-3,8.965606E-3,1.4131458E-2,9.281274E-3,2.355569E-2,1.29549E-2,1.5493232E-2,2.8433925E-2,3.1243786E-2,1.24579E-2,2.6703438E-2,6.670729E-2,6.26996E-2,3.0009577E-2,2.3408987E-2,5.0570235E-2,2.688338E-2,2.0416357E-2,1.521162E-2,4.7756404E-2,9.973093E-3,-1.3526505E-3,5.229637E-2,-1.7482572E-3,1.6807552E-2,9.971408E-3,4.4235636E-2,2.1966683E-2,3.1096896E-3,1.2865152E-2,1.1920697E-3,-4.403032E-3,2.4524534E-3,1.917808E-2,4.6822652E-2,1.0860304E-2],"categories":[],"categories_nodes":[],"categories_segments":[],"categories_sizes":[],"default_left":[0,0,0,0,0,0,0,0,0,0,0,0,0,0,0,0,0,0,0,0,0,0,0,0,0,0,0,0,0,0,0,0,0,0,0,0,0,0,0,0,0,0,0,0,0,0,0,0,0,0,0,0,0,0,0,0,0,0,0,0,0,0,0,0,0,0,0,0,0,0,0,0,0,0,0,0,0,0,0,0,0,0,0,0,0,0,0,0,0,0,0,0,0,0,0,0,0,0,0,0,0,0,0,0,0,0,0,0,0,0,0,0,0,0,0,0,0,0,0,0,0,0,0,0,0,0,0,0,0,0,0,0,0,0,0,0,0,0,0,0,0,0,0,0,0,0,0,0,0,0,0,0,0,0,0,0,0,0,0,0,0,0,0,0,0,0,0,0,0,0,0,0,0,0,0,0,0,0,0,0,0,0,0,0,0,0,0,0,0,0,0,0,0,0,0,0,0,0,0,0,0,0,0,0,0,0,0,0,0,0,0,0,0,0,0,0,0,0,0,0,0,0,0,0,0,0,0,0,0,0,0,0,0,0,0,0,0,0,0,0,0,0,0,0,0,0,0,0,0,0,0,0,0],"id":4,"left_children":[1,3,5,7,9,11,13,15,17,19,21,23,25,27,29,31,33,35,37,39,41,43,45,47,49,51,53,55,57,59,61,63,65,67,69,71,73,75,77,79,81,83,85,87,89,91,93,95,97,99,101,103,105,107,109,111,113,115,117,119,121,123,125,127,129,131,133,135,137,139,141,143,-1,145,147,149,151,153,155,157,159,161,163,165,167,169,171,173,175,177,179,181,183,185,187,189,191,193,195,197,199,201,203,205,207,209,211,213,215,217,219,221,223,225,227,229,231,233,235,237,239,241,243,245,247,249,251,-1,-1,-1,-1,-1,-1,-1,-1,-1,-1,-1,-1,-1,-1,-1,-1,-1,-1,-1,-1,-1,-1,-1,-1,-1,-1,-1,-1,-1,-1,-1,-1,-1,-1,-1,-1,-1,-1,-1,-1,-1,-1,-1,-1,-1,-1,-1,-1,-1,-1,-1,-1,-1,-1,-1,-1,-1,-1,-1,-1,-1,-1,-1,-1,-1,-1,-1,-1,-1,-1,-1,-1,-1,-1,-1,-1,-1,-1,-1,-1,-1,-1,-1,-1,-1,-1,-1,-1,-1,-1,-1,-1,-1,-1,-1,-1,-1,-1,-1,-1,-1,-1,-1,-1,-1,-1,-1,-1,-1,-1,-1,-1,-1,-1,-1,-1,-1,-1,-1,-1,-1,-1,-1,-1,-1,-1],"loss_changes":[9.4346414E4,8.620637E3,1.2708727E4,1.3501758E3,1.0866067E3,1.8176113E3,5.614414E3,5.7932135E2,7.7299805E2,4.5200854E2,7.683859E2,2.4092981E2,1.2747012E3,2.1900312E3,9.9307764E2,1.7728592E2,1.26311035E2,3.8969922E2,5.714678E2,1.12187256E2,9.1816345E1,2.6595862E2,3.1386478E2,1.3763232E2,1.24018616E2,2.7559863E2,4.370166E2,8.2869727E2,5.3246484E2,5.407876E2,2.154075E2,1.3696617E2,1.19338425E2,1.4053333E2,1.512467E2,1.1074255E3,1.1697949E2,1.3697656E2,5.4485815E2,1.1213733E2,9.993445E1,5.0968506E1,7.593698E1,2.0605554E2,1.199467E2,7.835571E1,4.8161194E1,1.902616E2,2.0756783E1,1.5726589E1,1.7067593E2,3.886128E2,1.7917432E2,4.2149902E2,2.4199902E2,3.808457E2,6.622949E2,5.693379E2,8.262285E2,3.792334E2,5.451914E2,1.5230093E2,8.2069617E2,8.2362915E1,9.5209366E1,7.391144E1,2.1455998E0,6.651364E1,3.0002286E2,7.808948E1,1.0343425E2,2.995306E1,0E0,5.2354492E1,5.826477E1,9.554639E1,1.5500366E2,2.9859058E2,7.16711E2,6.381256E1,6.2221336E0,6.2460693E1,2.6623821E1,7.460726E1,1.7850086E1,6.46785E1,4.7087593E1,2.0712451E2,4.7969995E2,6.0518597E1,1.9166714E2,6.129016E1,9.10627E1,9.82872E1,4.5420975E1,2.1579352E2,4.181858E2,2.5964222E1,1.2668748E2,5.3770638E0,2.2536402E1,1.3753903E2,1.7249911E2,1.6865747E2,1.07312256E2,1.2376001E2,1.2390503E2,2.191748E2,1.6095264E2,9.609091E1,1.7069873E2,3.8463867E2,3.6065088E2,5.544922E2,3.437561E2,1.02277783E3,5.0848926E2,3.669961E2,3.9130542E2,3.1418042E2,1.7472351E2,1.688977E2,3.0563525E2,1.0456424E2,5.1718246E1,2.458935E2,2.8759412E2,0E0,0E0,0E0,0E0,0E0,0E0,0E0,0E0,0E0,0E0,0E0,0E0,0E0,0E0,0E0,0E0,0E0,0E0,0E0,0E0,0E0,0E0,0E0,0E0,0E0,0E0,0E0,0E0,0E0,0E0,0E0,0E0,0E0,0E0,0E0,0E0,0E0,0E0,0E0,0E0,0E0,0E0,0E0,0E0,0E0,0E0,0E0,0E0,0E0,0E0,0E0,0E0,0E0,0E0,0E0,0E0,0E0,0E0,0E0,0E0,0E0,0E0,0E0,0E0,0E0,0E0,0E0,0E0,0E0,0E0,0E0,0E0,0E0,0E0,0E0,0E0,0E0,0E0,0E0,0E0,0E0,0E0,0E0,0E0,0E0,0E0,0E0,0E0,0E0,0E0,0E0,0E0,0E0,0E0,0E0,0E0,0E0,0E0,0E0,0E0,0E0,0E0,0E0,0E0,0E0,0E0,0E0,0E0,0E0,0E0,0E0,0E0,0E0,0E0,0E0,0E0,0E0,0E0,0E0,0E0,0E0,0E0,0E0,0E0,0E0,0E0],"parents":[2147483647,0,0,1,1,2,2,3,3,4,4,5,5,6,6,7,7,8,8,9,9,10,10,11,11,12,12,13,13,14,14,15,15,16,16,17,17,18,18,19,19,20,20,21,21,22,22,23,23,24,24,25,25,26,26,27,27,28,28,29,29,30,30,31,31,32,32,33,33,34,34,35,35,36,36,37,37,38,38,39,39,40,40,41,41,42,42,43,43,44,44,45,45,46,46,47,47,48,48,49,49,50,50,51,51,52,52,53,53,54,54,55,55,56,56,57,57,58,58,59,59,60,60,61,61,62,62,63,63,64,64,65,65,66,66,67,67,68,68,69,69,70,70,71,71,73,73,74,74,75,75,76,76,77,77,78,78,79,79,80,80,81,81,82,82,83,83,84,84,85,85,86,86,87,87,88,88,89,89,90,90,91,91,92,92,93,93,94,94,95,95,96,96,97,97,98,98,99,99,100,100,101,101,102,102,103,103,104,104,105,105,106,106,107,107,108,108,109,109,110,110,111,111,112,112,113,113,114,114,115,115,116,116,117,117,118,118,119,119,120,120,121,121,122,122,123,123,124,124,125,125,126,126],"right_children":[2,4,6,8,10,12,14,16,18,20,22,24,26,28,30,32,34,36,38,40,42,44,46,48,50,52,54,56,58,60,62,64,66,68,70,72,74,76,78,80,82,84,86,88,90,92,94,96,98,100,102,104,106,108,110,112,114,116,118,120,122,124,126,128,130,132,134,136,138,140,142,144,-1,146,148,150,152,154,156,158,160,162,164,166,168,170,172,174,176,178,180,182,184,186,188,190,192,194,196,198,200,202,204,206,208,210,212,214,216,218,220,222,224,226,228,230,232,234,236,238,240,242,244,246,248,250,252,-1,-1,-1,-1,-1,-1,-1,-1,-1,-1,-1,-1,-1,-1,-1,-1,-1,-1,-1,-1,-1,-1,-1,-1,-1,-1,-1,-1,-1,-1,-1,-1,-1,-1,-1,-1,-1,-1,-1,-1,-1,-1,-1,-1,-1,-1,-1,-1,-1,-1,-1,-1,-1,-1,-1,-1,-1,-1,-1,-1,-1,-1,-1,-1,-1,-1,-1,-1,-1,-1,-1,-1,-1,-1,-1,-1,-1,-1,-1,-1,-1,-1,-1,-1,-1,-1,-1,-1,-1,-1,-1,-1,-1,-1,-1,-1,-1,-1,-1,-1,-1,-1,-1,-1,-1,-1,-1,-1,-1,-1,-1,-1,-1,-1,-1,-1,-1,-1,-1,-1,-1,-1,-1,-1,-1,-1],"split_conditions":[5.55E-1,5E-3,5.8199997E0,-8.5876393E-1,-8.5876393E-1,1.9E1,2.2192152E-1,4E1,1.5E1,3.9E1,-5E-1,2E1,1.935E0,1.7329998E1,1.9E1,9.876999E1,1.7E1,-8.606997E-3,1.2071428E-1,6E0,5.5E-2,7.9094565E-1,1.4999999E-1,9.9421793E-1,2.3E1,-8.498171E-1,-6.994583E-1,-7.1767694E-1,-5E-1,-1.8369701E-16,8.8406754E-1,-9.7784835E-1,3.85E-1,-9.9325687E-1,9.876999E1,3.1950002E0,-9.725E1,1E0,9.966589E-1,5.33E0,2.2815E1,4.9557137E0,5.1730003E0,6.9328123E-1,2.27E0,8.4800005E0,3.3E1,9.562348E-1,1.5E1,2.1E1,5E-3,3.9E1,2.8E1,3.9E1,-5.808003E-1,3.9E1,1.9667289E-1,8E0,-7.1767694E-1,4.4519993E1,2.3815E1,1.6724998E1,1.8E1,3.9499998E-1,4.0999997E-1,-9.755E1,1.1565E1,3.56E0,8E0,6.545E-1,-9.1060466E-1,-2.5818441E-2,6.014547E-2,1E-2,5.012418E-1,2.142857E-3,1.7213356E-2,2.3E1,6E0,3.1E-1,1.1951667E0,1.6E1,-9.562348E-1,-9.14128E-1,-9.242907E-1,7E0,7E0,-9.735E1,1.5575E1,1.078E1,8.1153905E-1,-9.695E1,6.152846E-1,9.876999E1,5.2E1,4E0,9.634706E-1,-9.745E1,6E0,4.6999997E-1,2.2E1,1.8E1,2.6E1,1.6E1,5E-3,7.4007144E0,3E1,-8.311706E-1,-8.3592546E-1,-9.735E1,5E0,-8.311706E-1,-7.6941484E-1,2E0,2E1,-8.59648E-2,1.7129314E-1,2.1E1,3.1E1,9.8594815E-1,4.7115952E-1,1.2E1,5E0,3.85E-1,5.947267E-1,8.499999E-2,8.9198136E-1,-2.2045046E-3,1.7854986E-4,2.3006026E-4,3.1151297E-3,1.8672628E-2,5.030913E-2,-6.6582863E-3,4.543086E-3,-4.205373E-3,-1.1609884E-3,1.3051895E-2,-1.2228477E-3,-5.379767E-3,-3.149786E-3,-4.266989E-3,4.8878897E-2,9.092821E-3,-6.115316E-3,-5.373843E-3,-4.699412E-3,-2.7947407E-3,-4.355393E-3,-4.1228742E-3,-3.2518283E-3,-5.125981E-3,9.859268E-3,-1.4323675E-3,-3.0886205E-3,7.053699E-2,-6.142502E-3,1.13184275E-2,1.9092683E-2,9.430804E-3,-4.1267765E-3,1.0355213E-2,6.450816E-3,4.5524877E-3,-4.172051E-3,3.4727736E-3,-2.3990658E-3,-3.1464496E-3,1.8864402E-3,1.3932582E-2,5.787299E-3,-2.6651402E-3,3.7748336E-3,4.7051795E-3,1.2873805E-3,6.103608E-3,3.3021003E-2,-2.9076925E-3,9.284264E-3,5.5631585E-2,4.8473338E-3,-1.2099907E-3,6.040929E-4,-5.8037345E-4,6.4807753E-3,7.317279E-4,5.19452E-2,2.5097344E-3,-9.631165E-4,8.887425E-3,3.13964E-3,2.133545E-2,5.5794907E-3,-4.7700913E-3,1.1365062E-3,6.2476892E-2,-5.9615527E-3,-6.374754E-3,-1.7883964E-3,6.343119E-4,-4.347432E-3,-9.5073896E-4,1.1330087E-2,1.1900146E-2,2.3431184E-3,1.4075426E-2,8.25163E-3,4.3516494E-3,8.338767E-3,8.591434E-3,2.2724539E-3,5.0137583E-3,-2.2651914E-3,1.7147783E-2,1.0776192E-2,9.379629E-3,1.5392776E-2,1.9930406E-3,8.965606E-3,1.4131458E-2,9.281274E-3,2.355569E-2,1.29549E-2,1.5493232E-2,2.8433925E-2,3.1243786E-2,1.24579E-2,2.6703438E-2,6.670729E-2,6.26996E-2,3.0009577E-2,2.3408987E-2,5.0570235E-2,2.688338E-2,2.0416357E-2,1.521162E-2,4.7756404E-2,9.973093E-3,-1.3526505E-3,5.229637E-2,-1.7482572E-3,1.6807552E-2,9.971408E-3,4.4235636E-2,2.1966683E-2,3.1096896E-3,1.2865152E-2,1.1920697E-3,-4.403032E-3,2.4524534E-3,1.917808E-2,4.6822652E-2,1.0860304E-2],"split_indices":[8,8,8,4,4,7,4,7,7,7,3,6,8,8,6,9,6,4,13,6,11,4,8,4,6,4,4,4,3,3,4,4,12,4,11,9,1,3,4,11,9,13,14,4,10,9,7,4,7,6,9,7,7,7,4,7,4,6,4,9,8,8,7,11,12,1,10,12,6,14,4,4,0,13,4,13,4,7,6,9,14,6,4,4,4,6,6,1,9,11,4,1,4,10,7,6,4,1,6,9,6,7,6,6,11,13,6,4,4,1,6,4,4,6,6,4,4,6,6,4,4,6,6,10,4,12,4,0,0,0,0,0,0,0,0,0,0,0,0,0,0,0,0,0,0,0,0,0,0,0,0,0,0,0,0,0,0,0,0,0,0,0,0,0,0,0,0,0,0,0,0,0,0,0,0,0,0,0,0,0,0,0,0,0,0,0,0,0,0,0,0,0,0,0,0,0,0,0,0,0,0,0,0,0,0,0,0,0,0,0,0,0,0,0,0,0,0,0,0,0,0,0,0,0,0,0,0,0,0,0,0,0,0,0,0,0,0,0,0,0,0,0,0,0,0,0,0,0,0,0,0,0,0],"split_type":[0,0,0,0,0,0,0,0,0,0,0,0,0,0,0,0,0,0,0,0,0,0,0,0,0,0,0,0,0,0,0,0,0,0,0,0,0,0,0,0,0,0,0,0,0,0,0,0,0,0,0,0,0,0,0,0,0,0,0,0,0,0,0,0,0,0,0,0,0,0,0,0,0,0,0,0,0,0,0,0,0,0,0,0,0,0,0,0,0,0,0,0,0,0,0,0,0,0,0,0,0,0,0,0,0,0,0,0,0,0,0,0,0,0,0,0,0,0,0,0,0,0,0,0,0,0,0,0,0,0,0,0,0,0,0,0,0,0,0,0,0,0,0,0,0,0,0,0,0,0,0,0,0,0,0,0,0,0,0,0,0,0,0,0,0,0,0,0,0,0,0,0,0,0,0,0,0,0,0,0,0,0,0,0,0,0,0,0,0,0,0,0,0,0,0,0,0,0,0,0,0,0,0,0,0,0,0,0,0,0,0,0,0,0,0,0,0,0,0,0,0,0,0,0,0,0,0,0,0,0,0,0,0,0,0,0,0,0,0,0,0,0,0,0,0,0,0,0,0,0,0,0,0],"sum_hessian":[1.256107E6,1.016869E6,2.39238E5,8.45302E5,1.71567E5,1.41316E5,9.7922E4,1.27465E5,7.17837E5,2.3302E4,1.48265E5,3.4648E4,1.06668E5,6.8951E4,2.8971E4,5.586E4,7.1605E4,2.32909E5,4.84928E5,9.033E3,1.4269E4,3.8256E4,1.10009E5,2.366E4,1.0988E4,5.5949E4,5.0719E4,3.9591E4,2.936E4,1.9526E4,9.445E3,5.5622E4,2.38E2,3.3911E4,3.7694E4,5.82E2,2.32327E5,2.58804E5,2.26124E5,1.881E3,7.152E3,7.736E3,6.533E3,3.3737E4,4.519E3,7.0667E4,3.9342E4,2.2377E4,1.283E3,2.19E3,8.798E3,1.9367E4,3.6582E4,2.4599E4,2.612E4,2.1436E4,1.8155E4,7.194E3,2.2166E4,1.1754E4,7.772E3,5.881E3,3.564E3,2.4246E4,3.1376E4,1.71E2,6.7E1,1.4506E4,1.9405E4,3.7634E4,6E1,4.41E2,1.41E2,1.84393E5,4.7934E4,2.15438E5,4.3366E4,2.2593E5,1.94E2,1.724E3,1.57E2,6.588E3,5.64E2,6.352E3,1.384E3,4.047E3,2.486E3,2.8832E4,4.905E3,4.065E3,4.54E2,6.7647E4,3.02E3,2.1997E4,1.7345E4,1.835E4,4.027E3,1.223E3,6E1,7.33E2,1.457E3,5.471E3,3.327E3,8.424E3,1.0943E4,1.1097E4,2.5485E4,1.2032E4,1.2567E4,3.516E3,2.2604E4,1.1333E4,1.0103E4,1.7743E4,4.12E2,2.242E3,4.952E3,1.6359E4,5.807E3,1.1608E4,1.46E2,5.844E3,1.928E3,3.23E3,2.651E3,3.162E3,4.02E2,1.4636E4,9.61E3,2.5816E4,5.56E3,1.33E2,3.8E1,6E1,7E0,1.0563E4,3.943E3,6.07E2,1.8798E4,7.972E3,2.9662E4,2.4E1,3.6E1,5.9E1,3.82E2,9.155E4,9.2843E4,1.3221E4,3.4713E4,1.35055E5,8.0383E4,4.3089E4,2.77E2,5.8893E4,1.67037E5,9.3E1,1.01E2,9.6E2,7.64E2,1.4E1,1.43E2,3.453E3,3.135E3,2.52E2,3.12E2,5.319E3,1.033E3,9.91E2,3.93E2,4.37E2,3.61E3,5.97E2,1.889E3,1.6238E4,1.2594E4,4.625E3,2.8E2,3.896E3,1.69E2,3.1E1,4.23E2,5.9124E4,8.523E3,1.784E3,1.236E3,2.1983E4,1.4E1,1.5679E4,1.666E3,3.155E3,1.5195E4,8.55E2,3.172E3,7.13E2,5.1E2,1.3E1,4.7E1,6.09E2,1.24E2,6.84E2,7.73E2,5.079E3,3.92E2,1.159E3,2.168E3,5.189E3,3.235E3,6.079E3,4.864E3,9.674E3,1.423E3,2.4513E4,9.72E2,9.201E3,2.831E3,1.0416E4,2.151E3,2.316E3,1.2E3,3.425E3,1.9179E4,9.735E3,1.598E3,9.151E3,9.52E2,6.52E2,1.7091E4,2.89E2,1.23E2,4.91E2,1.751E3,4.659E3,2.93E2,1.1221E4,5.138E3,5.656E3,1.51E2,1.0528E4,1.08E3,1.16E2,3E1,2.655E3,3.189E3,2.91E2,1.637E3,2.706E3,5.24E2,1.247E3,1.404E3,2.76E3,4.02E2,2.68E2,1.34E2],"tree_param":{"num_deleted":"0","num_feature":"15","num_nodes":"253","size_leaf_vector":"1"}},{"base_weights":[4.7120624E-4,-1.2772255E-1,5.678707E-1,-1.7125583E-1,7.677891E-2,3.7880233E-1,8.310118E-1,-3.1946462E-3,-1.827664E-1,3.786124E-1,5.4906618E-2,6.5808165E-1,3.3037445E-1,9.812593E-1,4.7096115E-1,-9.458411E-2,2.6733162E-2,-2.2845234E-1,-1.6119412E-1,5.0943905E-1,2.419565E-1,1.5591493E-1,1.6390275E-2,8.02382E-1,4.960986E-1,2.588252E-1,4.2792907E-1,8.792981E-1,1.2653652E0,6.004146E-1,2.0360917E-1,-3.136033E-2,-1.7347291E-1,3.6857682E-3,1.670837E-1,-1.833642E-1,-2.4608186E-1,-1.5091936E-1,-2.0644462E-1,4.7568107E-1,1.0302167E0,2.3244019E-1,1.54272E0,2.0744937E-2,1.9808242E-1,-3.5384767E-2,8.588553E-2,7.628856E-1,1.4734622E0,3.5396352E-1,6.3776493E-1,5.2701944E-1,2.4460079E-1,5.210102E-1,2.9794514E-1,1.116109E0,7.8904474E-1,1.566705E0,1.1587169E0,4.5629752E-1,8.4957904E-1,7.4780434E-2,4.1509396E-1,-1.23415545E-1,3.3680603E-2,-2.4418138E-1,-8.874162E-2,4.203126E-2,-6.4849615E-2,5.5001044E-1,9.568959E-2,-2.189824E-1,-1.3396625E-1,-1.9285148E-1,-2.5648478E-1,-1.3719271E-1,-1.9593804E-1,-2.1551262E-1,-3.8948865E-4,5.7905585E-1,3.4699532E-1,5.146074E-1,1.7735043E0,2.203463E-1,1.0576388E0,1.9134713E0,-7.050402E-2,5.214741E-1,-7.3074927E-3,1.74534E-1,4.0774137E-1,1.2974337E-1,-4.382189E-2,2.0134169E-1,6.120684E-2,6.973957E-1,1.1487963E0,1.2234098E0,3.3220646E0,3.4063405E-1,1.1268114E0,5.8815235E-1,1.0558428E0,7.077708E-1,3.1186104E-2,3.5144457E-1,2.0583495E-1,8.8723713E-1,4.884755E-1,4.2701584E-1,2.22337E-1,9.991354E-1,1.223956E0,7.739587E-1,1.9185072E0,2.0137606E0,1.3731977E0,5.6243575E-1,1.2098433E0,5.065642E-1,-6.925991E-2,6.46303E-1,1.2746109E0,2.1622899E-1,-1.02472834E-1,1.4858028E0,2.4021941E-1,-3.3254272E-3,1.6285762E-3,2.5897978E-3,-2.4326553E-3,-4.9825273E-3,2.0042066E-2,-3.0854754E-3,1.7161146E-3,-1.2277332E-4,4.0660203E-3,-6.654933E-4,-4.5954636E-3,8.2998996E-4,2.6508894E-2,1.0095593E-3,1.2254231E-2,-4.861802E-3,-3.1818424E-3,8.486472E-4,-3.0662855E-3,-4.134679E-3,2.852698E-3,-5.398566E-3,-4.7697425E-3,-3.4837462E-3,-2.4353971E-3,-2.4310888E-3,-4.502055E-3,-4.9902806E-3,-4.1276E-3,-1.7277139E-3,9.805421E-3,1.2731133E-2,5.360408E-3,1.3945405E-2,4.9571204E-3,7.6231756E-3,3.3285204E-2,3.0267097E-2,7.310002E-2,2.7318182E-3,6.0206205E-3,7.143815E-3,2.8664138E-2,-4.4139395E-3,4.240893E-2,-5.8460957E-3,3.307951E-3,2.0639982E-2,5.9021204E-3,-3.379235E-4,3.140141E-2,2.7671796E-3,6.544646E-3,5.006742E-3,2.2118913E-2,5.088278E-3,4.875128E-4,-2.1162122E-3,-5.9488136E-4,2.6353898E-3,5.911208E-3,1.7024284E-3,-4.5656017E-4,1.5308491E-2,4.719555E-3,2.02211E-2,3.948688E-2,1.882342E-2,3.1977423E-2,5.5666897E-2,8.3177544E-2,8.346318E-3,3.911325E-3,3.7354E-2,-4.2997277E-3,6.618013E-3,1.3635768E-2,3.513411E-2,1.5299237E-2,1.1818707E-2,2.9968705E-2,2.6205806E-2,1.859601E-4,2.023501E-2,6.58502E-3,6.124357E-3,3.2615343E-3,1.5807943E-2,3.975593E-2,8.302637E-3,1.1120206E-2,9.393005E-3,3.350028E-3,3.3639846E-3,8.394758E-3,2.6428115E-2,1.8876046E-2,2.5487835E-2,1.8093381E-2,2.7808398E-2,1.5011253E-2,2.6079983E-2,6.9818094E-2,6.291257E-2,3.1981092E-2,4.1806225E-2,2.3850229E-2,8.710315E-3,2.4678955E-2,2.6110072E-2,2.0220062E-2,9.0788305E-3,1.8558059E-2,-3.7885779E-3,1.7894315E-2,2.405317E-2,9.44048E-3,4.01893E-2,1.4790175E-2,8.057194E-3,1.1873936E-3,5.810931E-4,-4.303546E-3,4.40076E-2,6.9033226E-4,2.4867984E-3,2.1912996E-2],"categories":[],"categories_nodes":[],"categories_segments":[],"categories_sizes":[],"default_left":[0,0,0,0,0,0,0,0,0,0,0,0,0,0,0,0,0,0,0,0,0,0,0,0,0,0,0,0,0,0,0,0,0,0,0,0,0,0,0,0,0,0,0,0,0,0,0,0,0,0,0,0,0,0,0,0,0,0,0,0,0,0,0,0,0,0,0,0,0,0,0,0,0,0,0,0,0,0,0,0,0,0,0,0,0,0,0,0,0,0,0,0,0,0,0,0,0,0,0,0,0,0,0,0,0,0,0,0,0,0,0,0,0,0,0,0,0,0,0,0,0,0,0,0,0,0,0,0,0,0,0,0,0,0,0,0,0,0,0,0,0,0,0,0,0,0,0,0,0,0,0,0,0,0,0,0,0,0,0,0,0,0,0,0,0,0,0,0,0,0,0,0,0,0,0,0,0,0,0,0,0,0,0,0,0,0,0,0,0,0,0,0,0,0,0,0,0,0,0,0,0,0,0,0,0,0,0,0,0,0,0,0,0,0,0,0,0,0,0,0,0,0,0,0,0,0,0,0,0,0,0,0,0,0,0,0,0,0,0,0,0,0,0,0,0,0,0,0,0,0,0,0,0,0,0],"id":5,"left_children":[1,3,5,7,9,11,13,15,17,19,21,23,25,27,29,31,33,35,37,39,41,43,45,47,49,51,53,55,57,59,61,63,65,67,69,71,73,75,77,79,81,83,85,87,89,91,93,95,97,99,101,103,105,107,109,111,113,115,117,119,121,123,125,127,129,131,133,135,137,139,141,143,145,147,149,151,153,155,157,159,161,163,165,167,169,171,173,175,177,179,181,183,185,187,189,191,193,195,197,199,201,203,205,207,209,211,213,215,217,219,221,223,225,227,229,231,233,235,237,239,241,243,245,247,249,251,253,-1,-1,-1,-1,-1,-1,-1,-1,-1,-1,-1,-1,-1,-1,-1,-1,-1,-1,-1,-1,-1,-1,-1,-1,-1,-1,-1,-1,-1,-1,-1,-1,-1,-1,-1,-1,-1,-1,-1,-1,-1,-1,-1,-1,-1,-1,-1,-1,-1,-1,-1,-1,-1,-1,-1,-1,-1,-1,-1,-1,-1,-1,-1,-1,-1,-1,-1,-1,-1,-1,-1,-1,-1,-1,-1,-1,-1,-1,-1,-1,-1,-1,-1,-1,-1,-1,-1,-1,-1,-1,-1,-1,-1,-1,-1,-1,-1,-1,-1,-1,-1,-1,-1,-1,-1,-1,-1,-1,-1,-1,-1,-1,-1,-1,-1,-1,-1,-1,-1,-1,-1,-1,-1,-1,-1,-1,-1,-1],"loss_changes":[9.136626E4,9.121832E3,1.1516953E4,1.6342227E3,1.1872123E3,1.821709E3,5.2353906E3,1.4811293E2,7.791758E2,2.1711523E2,6.523711E2,4.6488867E2,8.0121484E2,1.9770703E3,9.862173E2,6.6624565E1,1.3195633E2,2.0152539E2,2.4966602E2,1.0863147E2,7.3231445E1,2.6383862E2,4.368004E2,2.778706E2,1.8866772E2,2.5254004E2,5.875322E2,1.0732617E3,5.777168E2,6.8909814E2,2.5332312E2,4.4412384E1,3.5584152E1,9.209128E1,1.5725433E2,1.2539404E2,1.0090039E2,2.7043848E2,1.8568652E2,7.736792E1,1.4357108E2,5.867801E1,2.5853409E1,1.5462953E2,1.7412585E2,9.6928276E1,1.476644E2,2.5049072E2,2.6588818E2,4.7879456E1,9.680383E1,2.9886914E2,2.604441E2,3.3679932E2,1.9772559E2,1.7370117E2,6.1860547E2,4.0477734E2,4.0548242E2,3.2146313E2,6.069917E2,1.4493958E2,6.5872687E2,2.6973145E1,6.470114E1,2.0211212E1,3.0954285E1,1.7455614E2,6.5460464E1,3.5640744E2,1.13363144E2,5.9761353E1,1.01944885E2,1.3885217E2,3.683203E1,1.9135156E2,2.2182812E2,2.9506348E1,1.7683919E2,5.7633057E1,9.011484E1,3.373164E1,6.984711E1,3.928241E1,2.1848679E1,1.5928162E1,5.192548E-1,6.7186325E1,1.577044E2,1.7518274E2,3.9118805E2,4.4420612E1,5.7756012E1,5.9788574E1,8.582037E1,2.6672607E2,1.6186292E2,5.3175537E1,1.9530151E1,5.1166992E1,7.893723E1,1.0096826E2,9.997833E1,2.248855E2,2.4961283E1,2.4504272E2,1.980564E2,2.4441101E2,1.2853418E2,8.2759155E1,1.3656067E2,1.17461426E2,1.149541E2,5.169336E2,4.5828198E2,6.619761E2,4.2393066E2,8.929321E1,2.3206836E2,2.4579858E2,1.2330738E2,4.6106384E2,8.9309424E2,9.409445E1,3.804396E1,5.122301E2,2.9992072E2,0E0,0E0,0E0,0E0,0E0,0E0,0E0,0E0,0E0,0E0,0E0,0E0,0E0,0E0,0E0,0E0,0E0,0E0,0E0,0E0,0E0,0E0,0E0,0E0,0E0,0E0,0E0,0E0,0E0,0E0,0E0,0E0,0E0,0E0,0E0,0E0,0E0,0E0,0E0,0E0,0E0,0E0,0E0,0E0,0E0,0E0,0E0,0E0,0E0,0E0,0E0,0E0,0E0,0E0,0E0,0E0,0E0,0E0,0E0,0E0,0E0,0E0,0E0,0E0,0E0,0E0,0E0,0E0,0E0,0E0,0E0,0E0,0E0,0E0,0E0,0E0,0E0,0E0,0E0,0E0,0E0,0E0,0E0,0E0,0E0,0E0,0E0,0E0,0E0,0E0,0E0,0E0,0E0,0E0,0E0,0E0,0E0,0E0,0E0,0E0,0E0,0E0,0E0,0E0,0E0,0E0,0E0,0E0,0E0,0E0,0E0,0E0,0E0,0E0,0E0,0E0,0E0,0E0,0E0,0E0,0E0,0E0,0E0,0E0,0E0,0E0,0E0,0E0],"parents":[2147483647,0,0,1,1,2,2,3,3,4,4,5,5,6,6,7,7,8,8,9,9,10,10,11,11,12,12,13,13,14,14,15,15,16,16,17,17,18,18,19,19,20,20,21,21,22,22,23,23,24,24,25,25,26,26,27,27,28,28,29,29,30,30,31,31,32,32,33,33,34,34,35,35,36,36,37,37,38,38,39,39,40,40,41,41,42,42,43,43,44,44,45,45,46,46,47,47,48,48,49,49,50,50,51,51,52,52,53,53,54,54,55,55,56,56,57,57,58,58,59,59,60,60,61,61,62,62,63,63,64,64,65,65,66,66,67,67,68,68,69,69,70,70,71,71,72,72,73,73,74,74,75,75,76,76,77,77,78,78,79,79,80,80,81,81,82,82,83,83,84,84,85,85,86,86,87,87,88,88,89,89,90,90,91,91,92,92,93,93,94,94,95,95,96,96,97,97,98,98,99,99,100,100,101,101,102,102,103,103,104,104,105,105,106,106,107,107,108,108,109,109,110,110,111,111,112,112,113,113,114,114,115,115,116,116,117,117,118,118,119,119,120,120,121,121,122,122,123,123,124,124,125,125,126,126],"right_children":[2,4,6,8,10,12,14,16,18,20,22,24,26,28,30,32,34,36,38,40,42,44,46,48,50,52,54,56,58,60,62,64,66,68,70,72,74,76,78,80,82,84,86,88,90,92,94,96,98,100,102,104,106,108,110,112,114,116,118,120,122,124,126,128,130,132,134,136,138,140,142,144,146,148,150,152,154,156,158,160,162,164,166,168,170,172,174,176,178,180,182,184,186,188,190,192,194,196,198,200,202,204,206,208,210,212,214,216,218,220,222,224,226,228,230,232,234,236,238,240,242,244,246,248,250,252,254,-1,-1,-1,-1,-1,-1,-1,-1,-1,-1,-1,-1,-1,-1,-1,-1,-1,-1,-1,-1,-1,-1,-1,-1,-1,-1,-1,-1,-1,-1,-1,-1,-1,-1,-1,-1,-1,-1,-1,-1,-1,-1,-1,-1,-1,-1,-1,-1,-1,-1,-1,-1,-1,-1,-1,-1,-1,-1,-1,-1,-1,-1,-1,-1,-1,-1,-1,-1,-1,-1,-1,-1,-1,-1,-1,-1,-1,-1,-1,-1,-1,-1,-1,-1,-1,-1,-1,-1,-1,-1,-1,-1,-1,-1,-1,-1,-1,-1,-1,-1,-1,-1,-1,-1,-1,-1,-1,-1,-1,-1,-1,-1,-1,-1,-1,-1,-1,-1,-1,-1,-1,-1,-1,-1,-1,-1,-1,-1],"split_conditions":[6.4E-1,5E-3,5.99E0,-8.660254E-1,-8.660254E-1,-8.660254E-1,2.2192152E-1,-9.9421793E-1,4.3533334E-1,1.6E1,-5.772916E-1,1.6E1,2.2649999E0,2.604E1,1.9E1,1.2964286E0,5.035E0,-3.6572254E-1,8.429415E-1,-8.717063E-1,6.6645E1,-4.4822934E-1,1.25E-1,-8.717063E-1,2.04E0,-9.9167734E-1,5.1619668E-2,-8.660254E-1,-8.900276E-1,2.7609697E-1,8.8406754E-1,1.3571428E-2,-9.9843544E-1,1.6E1,-9.899325E-1,2E1,-3.9359027E-1,8.660254E-1,9.998518E-1,2.7068334E0,2.1636667E0,7.794501E1,-9.95919E-1,-8.013611E-1,2.8E1,-8.9963084E-1,-8.498171E-1,1.4E1,3.375E0,5.8774994E1,2.0885E1,5.445E0,-6.994583E-1,-9.893142E-1,-5.772916E-1,1.157E1,1.9667289E-1,8E0,-6.0505605E-1,9.8594815E-1,9.1758364E-1,1.7329998E1,9.033558E-1,9.2999995E-1,-9.966589E-1,2.8501427E1,2.7E1,1.2E1,1.6200001E0,5.865714E0,1.4949999E0,7E-2,-9.837093E-1,-4.2500034E-1,5.7142857E-3,9.285714E-3,-6.450845E-2,1.4285714E-3,2.0371428E0,5.55E-1,-9.562348E-1,9.9999994E-2,5.065E0,-9.922222E-1,-9.95919E-1,-9.997685E-1,2.605E1,1.1214285E-1,7.794501E1,6.9328123E-1,1.035E0,6.5E-1,1.78E-1,3.9999995E-2,2.5E1,9.364286E0,3.7499995E0,2.1636667E0,1.5E-2,3.5E-2,-9.95919E-1,-9.966589E-1,-9.966589E-1,1.7E0,2E0,-6.839194E-1,-5E-1,3E1,3.5549998E0,6.6485715E0,2.35E-1,1.5214285E0,7.3633337E0,2E0,2E1,-8.59648E-2,-3.8566342E-1,7.8616667E0,2.1E1,2.145E0,5.8198338E0,5E0,9.3688136E-1,-7.4410397E-1,5.947267E-1,1.5486666E0,8.499999E-2,-3.3254272E-3,1.6285762E-3,2.5897978E-3,-2.4326553E-3,-4.9825273E-3,2.0042066E-2,-3.0854754E-3,1.7161146E-3,-1.2277332E-4,4.0660203E-3,-6.654933E-4,-4.5954636E-3,8.2998996E-4,2.6508894E-2,1.0095593E-3,1.2254231E-2,-4.861802E-3,-3.1818424E-3,8.486472E-4,-3.0662855E-3,-4.134679E-3,2.852698E-3,-5.398566E-3,-4.7697425E-3,-3.4837462E-3,-2.4353971E-3,-2.4310888E-3,-4.502055E-3,-4.9902806E-3,-4.1276E-3,-1.7277139E-3,9.805421E-3,1.2731133E-2,5.360408E-3,1.3945405E-2,4.9571204E-3,7.6231756E-3,3.3285204E-2,3.0267097E-2,7.310002E-2,2.7318182E-3,6.0206205E-3,7.143815E-3,2.8664138E-2,-4.4139395E-3,4.240893E-2,-5.8460957E-3,3.307951E-3,2.0639982E-2,5.9021204E-3,-3.379235E-4,3.140141E-2,2.7671796E-3,6.544646E-3,5.006742E-3,2.2118913E-2,5.088278E-3,4.875128E-4,-2.1162122E-3,-5.9488136E-4,2.6353898E-3,5.911208E-3,1.7024284E-3,-4.5656017E-4,1.5308491E-2,4.719555E-3,2.02211E-2,3.948688E-2,1.882342E-2,3.1977423E-2,5.5666897E-2,8.3177544E-2,8.346318E-3,3.911325E-3,3.7354E-2,-4.2997277E-3,6.618013E-3,1.3635768E-2,3.513411E-2,1.5299237E-2,1.1818707E-2,2.9968705E-2,2.6205806E-2,1.859601E-4,2.023501E-2,6.58502E-3,6.124357E-3,3.2615343E-3,1.5807943E-2,3.975593E-2,8.302637E-3,1.1120206E-2,9.393005E-3,3.350028E-3,3.3639846E-3,8.394758E-3,2.6428115E-2,1.8876046E-2,2.5487835E-2,1.8093381E-2,2.7808398E-2,1.5011253E-2,2.6079983E-2,6.9818094E-2,6.291257E-2,3.1981092E-2,4.1806225E-2,2.3850229E-2,8.710315E-3,2.4678955E-2,2.6110072E-2,2.0220062E-2,9.0788305E-3,1.8558059E-2,-3.7885779E-3,1.7894315E-2,2.405317E-2,9.44048E-3,4.01893E-2,1.4790175E-2,8.057194E-3,1.1873936E-3,5.810931E-4,-4.303546E-3,4.40076E-2,6.9033226E-4,2.4867984E-3,2.1912996E-2],"split_indices":[8,8,8,2,2,2,4,4,14,6,5,6,8,8,6,13,11,5,5,4,11,4,8,4,8,5,4,2,5,5,4,13,4,6,4,6,4,2,5,14,14,10,4,4,6,4,4,6,12,11,11,13,4,5,5,8,4,6,5,4,4,8,4,12,4,13,6,6,12,13,12,13,5,4,13,13,5,13,13,11,4,12,12,4,4,4,0,13,10,4,10,13,14,11,6,13,10,14,11,12,4,4,4,10,6,5,3,6,8,13,10,13,14,6,6,4,4,14,6,11,14,6,4,5,4,14,12,0,0,0,0,0,0,0,0,0,0,0,0,0,0,0,0,0,0,0,0,0,0,0,0,0,0,0,0,0,0,0,0,0,0,0,0,0,0,0,0,0,0,0,0,0,0,0,0,0,0,0,0,0,0,0,0,0,0,0,0,0,0,0,0,0,0,0,0,0,0,0,0,0,0,0,0,0,0,0,0,0,0,0,0,0,0,0,0,0,0,0,0,0,0,0,0,0,0,0,0,0,0,0,0,0,0,0,0,0,0,0,0,0,0,0,0,0,0,0,0,0,0,0,0,0,0,0,0],"split_type":[0,0,0,0,0,0,0,0,0,0,0,0,0,0,0,0,0,0,0,0,0,0,0,0,0,0,0,0,0,0,0,0,0,0,0,0,0,0,0,0,0,0,0,0,0,0,0,0,0,0,0,0,0,0,0,0,0,0,0,0,0,0,0,0,0,0,0,0,0,0,0,0,0,0,0,0,0,0,0,0,0,0,0,0,0,0,0,0,0,0,0,0,0,0,0,0,0,0,0,0,0,0,0,0,0,0,0,0,0,0,0,0,0,0,0,0,0,0,0,0,0,0,0,0,0,0,0,0,0,0,0,0,0,0,0,0,0,0,0,0,0,0,0,0,0,0,0,0,0,0,0,0,0,0,0,0,0,0,0,0,0,0,0,0,0,0,0,0,0,0,0,0,0,0,0,0,0,0,0,0,0,0,0,0,0,0,0,0,0,0,0,0,0,0,0,0,0,0,0,0,0,0,0,0,0,0,0,0,0,0,0,0,0,0,0,0,0,0,0,0,0,0,0,0,0,0,0,0,0,0,0,0,0,0,0,0,0,0,0,0,0,0,0,0,0,0,0,0,0,0,0,0,0,0,0],"sum_hessian":[1.256115E6,1.024621E6,2.31494E5,8.44787E5,1.79834E5,1.34708E5,9.6786E4,5.4151E4,7.90636E5,1.215E4,1.67684E5,1.9905E4,1.14803E5,6.8288E4,2.8498E4,1.3358E4,4.0793E4,2.53584E5,5.37052E5,6.206E3,5.944E3,4.6289E4,1.21395E5,1.0525E4,9.38E3,6.6231E4,4.8572E4,5.0256E4,1.8032E4,1.92E4,9.298E3,7.416E3,5.942E3,3.504E4,5.753E3,7.1284E4,1.823E5,4.37676E5,9.9376E4,5.83E3,3.76E2,5.902E3,4.2E1,1.1007E4,3.5282E4,6.9567E4,5.1828E4,9.942E3,5.83E2,4.684E3,4.696E3,3.334E3,6.2897E4,2.8302E4,2.027E4,1.3865E4,3.6391E4,4.71E3,1.3322E4,1.2166E4,7.034E3,5.779E3,3.519E3,3.07E3,4.346E3,3.238E3,2.704E3,2.2469E4,1.2571E4,9.03E2,4.85E3,4.1417E4,2.9867E4,2.9806E4,1.52494E5,3.3541E5,1.02266E5,9.5187E4,4.189E3,3.231E3,2.599E3,2.23E2,1.53E2,5.818E3,8.4E1,3.4E1,8E0,5.83E2,1.0424E4,3.1721E4,3.561E3,3.381E3,6.6186E4,9.126E3,4.2702E4,8.502E3,1.44E3,5.15E2,6.8E1,4.606E3,7.8E1,4.2E3,4.96E2,2.443E3,8.91E2,1.6743E4,4.6154E4,2.307E3,2.5995E4,7.486E3,1.2784E4,6.656E3,7.209E3,3.5913E4,4.78E2,1.42E3,3.29E3,1.053E3,1.2269E4,1.1104E4,1.062E3,4.76E3,2.274E3,3.214E3,2.565E3,4.93E2,3.026E3,2.539E3,5.31E2,2.688E3,1.658E3,3.226E3,1.2E1,1.966E3,7.38E2,1.7302E4,5.167E3,1.0552E4,2.019E3,5.46E2,3.57E2,4.461E3,3.89E2,2.9528E4,1.1889E4,2.952E3,2.6915E4,2.8622E4,1.184E3,8.7283E4,6.5211E4,9.8685E4,2.36725E5,2.8805E4,7.3461E4,2.0148E4,7.5039E4,3.565E3,6.24E2,2.726E3,5.05E2,5.72E2,2.027E3,2.01E2,2.2E1,1.36E2,1.7E1,2.856E3,2.962E3,3E1,5.4E1,3E0,3.1E1,4E0,4E0,1.78E2,4.05E2,1.0362E4,6.2E1,2.5647E4,6.074E3,2.907E3,6.54E2,1.548E3,1.833E3,1.2248E4,5.3938E4,5.251E3,3.875E3,3.3242E4,9.46E3,7.409E3,1.093E3,1.236E3,2.04E2,2.96E2,2.19E2,4.4E1,2.4E1,3.012E3,1.594E3,5E1,2.8E1,1.122E3,3.078E3,1.44E2,3.52E2,2.13E3,3.13E2,1.4E1,8.77E2,5.43E2,1.62E4,1.3785E4,3.2369E4,2.122E3,1.85E2,1.2465E4,1.353E4,6.429E3,1.057E3,1.0034E4,2.75E3,9.72E2,5.684E3,6.223E3,9.86E2,1.311E3,3.4602E4,3.45E2,1.33E2,3.79E2,1.041E3,6.6E2,2.63E3,8.87E2,1.66E2,8.28E3,3.989E3,9.873E3,1.231E3,9.45E2,1.17E2,1.134E3,3.626E3,9.57E2,1.317E3,1.467E3,1.747E3,1.184E3,1.381E3,3.3E2,1.63E2,2.666E3,3.6E2],"tree_param":{"num_deleted":"0","num_feature":"15","num_nodes":"255","size_leaf_vector":"1"}},{"base_weights":[9.16184E-5,-1.2587619E-1,5.4873306E-1,-1.6734773E-1,7.247751E-2,3.6285457E-1,8.075894E-1,-2.2951847E-1,-1.437272E-1,-1.6073987E-2,1.3137826E-1,1.7046595E-1,4.2496753E-1,4.7322038E-1,9.5577776E-1,-2.3192814E-1,8.621501E-2,-1.8501958E-1,-1.1044061E-1,-4.0607274E-2,7.376208E-2,1.8855019E-1,1.873414E-2,2.2468612E-1,5.2570127E-2,3.3506757E-1,5.3713363E-1,5.928387E-1,2.2222658E-1,8.150099E-1,1.1420817E0,-2.4269481E-1,-1.9047715E-1,-1.7477709E-1,1.881316E0,-2.1860582E-1,-1.6760126E-1,-9.808492E-2,-2.2085662E-1,-7.031424E-2,9.494719E-3,5.753425E-2,9.353124E-1,1.433008E-1,2.8171983E-1,-1.7656296E-2,1.1289306E-1,2.1709488E-1,9.6353596E-1,2.9212144E-1,-1.1243416E-2,3.6710685E-1,1.9389349E-1,7.3168844E-1,5.073663E-1,4.1082042E-1,8.028697E-1,1.885161E-1,2.2756474E0,8.636389E-1,5.6373894E-1,1.1986756E0,7.758078E-1,-2.5985196E-1,-2.2810078E-1,-2.1007441E-1,-1.3851403E-1,4.4535804E-1,-1.9933082E-1,2.900718E0,-1.8257244E-1,-3.805356E-2,-2.2542255E-1,9.6912906E-2,-1.7001624E-1,-1.0048058E-1,2.7309105E-1,-2.565225E-1,-1.548448E-1,-7.7803046E-2,3.2107762E-1,5.3722627E-2,-7.1870856E-2,1.5190786E-1,-8.373476E-2,1.1527276E0,-1.957286E-1,2.0497331E-1,6.2251948E-2,4.478791E-1,1.7700177E-1,-8.893181E-2,2.9638046E-2,9.899073E-2,4.3254218E-1,1.13953345E-1,2.8125972E-1,2.0530924E-1,1.4785215E0,9.7241884E-1,1.9733915E-1,-7.05233E-2,2.7785894E-1,2.9052755E-1,4.1148457E-1,9.6671686E-2,3.6709788E-1,6.426912E-1,9.8131347E-1,2.9847363E-1,5.3248376E-1,3.9062738E-1,1.8898098E0,6.54952E-1,1.2874821E0,2.5182417E-1,-7.023219E-2,2.479623E0,1.658104E0,7.2246E-1,9.523106E-1,1.12181E0,4.2599174E-1,1.1767453E0,2.061069E0,7.18009E-1,1.5666472E0,-5.3007854E-3,-3.6964593E-3,1.4182089E-2,-4.579575E-3,-4.3002386E-3,-1.5856609E-3,-2.8604975E-3,4.9553416E-3,2.1083953E-3,2.110929E-2,-4.3651247E-3,9.777192E-3,5.11318E-2,6.1353177E-2,-6.0798344E-3,1.7446263E-2,3.4630567E-2,-2.1116647E-3,-5.898457E-3,-4.345566E-3,-2.9453442E-3,1.2668807E-2,-3.2123628E-3,-4.5436886E-3,-3.0486109E-3,-1.6769498E-3,3.212949E-2,2.559412E-3,-5.909575E-4,-5.2358317E-3,-3.3319432E-3,1.0554548E-2,-1.0280146E-3,-2.1600078E-3,1.1237133E-3,3.1775594E-2,-1.4707736E-4,2.3372301E-3,-2.0785076E-3,5.595519E-4,2.2254025E-3,3.97564E-2,1.2219465E-2,-1.9843855E-3,1.9570004E-2,5.7631858E-2,-5.1000286E-3,6.8261777E-3,4.956868E-3,1.5336449E-3,5.0335126E-3,5.912218E-4,1.2873356E-2,7.817613E-3,-1.7376058E-3,3.8696963E-3,-1.8794755E-3,5.093092E-3,1.3834708E-3,-1.900719E-3,1.7336756E-2,1.8922864E-3,1.2754353E-2,-4.06634E-3,-6.9176464E-4,6.2329094E-3,7.690652E-3,3.6654852E-3,1.8969344E-3,2.7894668E-2,4.127499E-3,3.240973E-2,9.189269E-3,4.0922254E-2,7.4690985E-3,-1.064921E-3,-1.6154728E-3,1.9168245E-2,-4.441515E-4,1.2054849E-2,9.874551E-3,4.831477E-3,1.0152658E-2,6.37688E-3,3.851393E-3,8.246029E-4,1.1900732E-2,5.980205E-3,1.5759476E-2,6.9219302E-3,1.7135624E-2,4.2901177E-2,9.862316E-3,2.8250709E-3,2.6891805E-2,1.0532113E-2,8.985115E-3,1.4643366E-3,5.116288E-2,-4.838938E-3,2.0130705E-2,1.13509605E-2,3.189257E-2,1.8605689E-2,7.515341E-3,1.5436987E-3,2.683174E-2,-2.5264632E-3,4.2394318E-2,5.53876E-2,2.2217968E-2,3.58878E-2,1.7312989E-2,8.8804625E-3,2.2269487E-2,1.5973026E-2,6.209503E-2,1.8025368E-2,8.08404E-3,2.4917275E-2,2.7234184E-2,2.1891186E-2,7.632214E-2,3.730359E-2,1.8807137E-2,6.82221E-3,4.0580105E-2,1.11645125E-2],"categories":[],"categories_nodes":[],"categories_segments":[],"categories_sizes":[],"default_left":[0,0,0,0,0,0,0,0,0,0,0,0,0,0,0,0,0,0,0,0,0,0,0,0,0,0,0,0,0,0,0,0,0,0,0,0,0,0,0,0,0,0,0,0,0,0,0,0,0,0,0,0,0,0,0,0,0,0,0,0,0,0,0,0,0,0,0,0,0,0,0,0,0,0,0,0,0,0,0,0,0,0,0,0,0,0,0,0,0,0,0,0,0,0,0,0,0,0,0,0,0,0,0,0,0,0,0,0,0,0,0,0,0,0,0,0,0,0,0,0,0,0,0,0,0,0,0,0,0,0,0,0,0,0,0,0,0,0,0,0,0,0,0,0,0,0,0,0,0,0,0,0,0,0,0,0,0,0,0,0,0,0,0,0,0,0,0,0,0,0,0,0,0,0,0,0,0,0,0,0,0,0,0,0,0,0,0,0,0,0,0,0,0,0,0,0,0,0,0,0,0,0,0,0,0,0,0,0,0,0,0,0,0,0,0,0,0,0,0,0,0,0,0,0,0,0,0,0,0,0,0,0,0,0,0,0,0,0,0,0,0,0,0,0,0,0,0,0,0,0,0,0,0,0,0],"id":6,"left_children":[1,3,5,7,9,11,13,15,17,19,21,23,25,27,29,31,33,35,37,39,41,43,45,47,49,51,53,55,57,59,61,63,65,67,69,71,73,75,77,79,81,83,85,87,89,91,93,95,97,99,101,103,105,107,109,111,113,115,117,119,121,123,125,127,129,131,133,135,137,139,141,143,145,147,149,151,153,155,157,159,161,163,165,167,169,171,173,175,177,179,181,183,185,187,189,191,193,195,197,199,201,203,205,207,209,211,213,215,217,219,221,223,225,227,229,231,233,235,237,239,241,243,245,247,249,251,253,-1,-1,-1,-1,-1,-1,-1,-1,-1,-1,-1,-1,-1,-1,-1,-1,-1,-1,-1,-1,-1,-1,-1,-1,-1,-1,-1,-1,-1,-1,-1,-1,-1,-1,-1,-1,-1,-1,-1,-1,-1,-1,-1,-1,-1,-1,-1,-1,-1,-1,-1,-1,-1,-1,-1,-1,-1,-1,-1,-1,-1,-1,-1,-1,-1,-1,-1,-1,-1,-1,-1,-1,-1,-1,-1,-1,-1,-1,-1,-1,-1,-1,-1,-1,-1,-1,-1,-1,-1,-1,-1,-1,-1,-1,-1,-1,-1,-1,-1,-1,-1,-1,-1,-1,-1,-1,-1,-1,-1,-1,-1,-1,-1,-1,-1,-1,-1,-1,-1,-1,-1,-1,-1,-1,-1,-1,-1,-1],"loss_changes":[8.687757E4,8.409824E3,1.1293891E4,1.2416699E3,9.2208417E2,1.6325723E3,4.8606133E3,1.771377E2,8.422002E2,1.5564764E2,6.837335E2,2.1314679E2,1.0412676E3,9.0444434E2,1.7818086E3,1.0306445E2,8.2677545E2,1.5995703E2,4.6283008E2,8.256398E1,2.1174577E2,2.9686206E2,1.22481674E2,1.2790112E2,1.6060449E2,2.5925293E2,2.6573242E2,7.797046E2,6.728224E2,4.726836E2,6.0547266E2,4.5862305E1,4.848633E1,2.3553017E1,4.718103E2,1.1493848E2,1.1506006E2,2.7134937E2,8.034558E1,1.02096115E2,7.431196E1,1.9826054E2,6.907916E1,2.3694037E2,4.0048328E2,8.69119E1,4.4235886E1,1.496023E2,9.0286835E1,1.4230923E2,1.4221321E2,1.5867822E2,1.7857831E2,1.3477539E2,2.0894922E2,3.2577893E2,6.781362E2,1.5678244E2,1.5664795E1,4.0545117E2,4.8243665E2,4.7676172E2,1.7796533E2,3.2756348E1,8.171094E1,2.2322632E1,2.277446E1,1.2125247E1,1.9421711E1,7.746582E-1,9.871435E0,4.0636096E2,5.0875977E1,2.136385E2,9.584766E1,2.6195288E2,3.7847626E2,2.6500366E1,9.6181305E1,2.7238327E1,2.1952663E2,5.159045E1,2.3277637E1,6.6490283E2,6.413064E1,6.7966095E1,1.5512938E0,1.4803711E2,1.2685055E2,9.905823E1,6.1445892E1,1.7839462E1,7.64019E1,3.200991E1,5.4271675E1,2.5469778E2,1.4097144E2,1.2349461E1,2.458841E1,1.4776436E2,8.568011E1,7.2703674E1,1.3766457E2,1.7044861E2,2.6332324E2,3.611925E1,5.8999084E1,1.9346008E2,2.3004028E2,1.3090543E2,1.6911328E2,2.007052E2,2.1005365E2,2.2249634E2,2.4141919E2,1.6640164E2,1.4920566E2,6.2268066E0,1.1388321E0,4.987788E2,4.9251562E2,5.40792E2,8.953497E1,3.7415234E2,2.0844067E2,3.0581006E2,1.2289038E2,0E0,0E0,0E0,0E0,0E0,0E0,0E0,0E0,0E0,0E0,0E0,0E0,0E0,0E0,0E0,0E0,0E0,0E0,0E0,0E0,0E0,0E0,0E0,0E0,0E0,0E0,0E0,0E0,0E0,0E0,0E0,0E0,0E0,0E0,0E0,0E0,0E0,0E0,0E0,0E0,0E0,0E0,0E0,0E0,0E0,0E0,0E0,0E0,0E0,0E0,0E0,0E0,0E0,0E0,0E0,0E0,0E0,0E0,0E0,0E0,0E0,0E0,0E0,0E0,0E0,0E0,0E0,0E0,0E0,0E0,0E0,0E0,0E0,0E0,0E0,0E0,0E0,0E0,0E0,0E0,0E0,0E0,0E0,0E0,0E0,0E0,0E0,0E0,0E0,0E0,0E0,0E0,0E0,0E0,0E0,0E0,0E0,0E0,0E0,0E0,0E0,0E0,0E0,0E0,0E0,0E0,0E0,0E0,0E0,0E0,0E0,0E0,0E0,0E0,0E0,0E0,0E0,0E0,0E0,0E0,0E0,0E0,0E0,0E0,0E0,0E0,0E0,0E0],"parents":[2147483647,0,0,1,1,2,2,3,3,4,4,5,5,6,6,7,7,8,8,9,9,10,10,11,11,12,12,13,13,14,14,15,15,16,16,17,17,18,18,19,19,20,20,21,21,22,22,23,23,24,24,25,25,26,26,27,27,28,28,29,29,30,30,31,31,32,32,33,33,34,34,35,35,36,36,37,37,38,38,39,39,40,40,41,41,42,42,43,43,44,44,45,45,46,46,47,47,48,48,49,49,50,50,51,51,52,52,53,53,54,54,55,55,56,56,57,57,58,58,59,59,60,60,61,61,62,62,63,63,64,64,65,65,66,66,67,67,68,68,69,69,70,70,71,71,72,72,73,73,74,74,75,75,76,76,77,77,78,78,79,79,80,80,81,81,82,82,83,83,84,84,85,85,86,86,87,87,88,88,89,89,90,90,91,91,92,92,93,93,94,94,95,95,96,96,97,97,98,98,99,99,100,100,101,101,102,102,103,103,104,104,105,105,106,106,107,107,108,108,109,109,110,110,111,111,112,112,113,113,114,114,115,115,116,116,117,117,118,118,119,119,120,120,121,121,122,122,123,123,124,124,125,125,126,126],"right_children":[2,4,6,8,10,12,14,16,18,20,22,24,26,28,30,32,34,36,38,40,42,44,46,48,50,52,54,56,58,60,62,64,66,68,70,72,74,76,78,80,82,84,86,88,90,92,94,96,98,100,102,104,106,108,110,112,114,116,118,120,122,124,126,128,130,132,134,136,138,140,142,144,146,148,150,152,154,156,158,160,162,164,166,168,170,172,174,176,178,180,182,184,186,188,190,192,194,196,198,200,202,204,206,208,210,212,214,216,218,220,222,224,226,228,230,232,234,236,238,240,242,244,246,248,250,252,254,-1,-1,-1,-1,-1,-1,-1,-1,-1,-1,-1,-1,-1,-1,-1,-1,-1,-1,-1,-1,-1,-1,-1,-1,-1,-1,-1,-1,-1,-1,-1,-1,-1,-1,-1,-1,-1,-1,-1,-1,-1,-1,-1,-1,-1,-1,-1,-1,-1,-1,-1,-1,-1,-1,-1,-1,-1,-1,-1,-1,-1,-1,-1,-1,-1,-1,-1,-1,-1,-1,-1,-1,-1,-1,-1,-1,-1,-1,-1,-1,-1,-1,-1,-1,-1,-1,-1,-1,-1,-1,-1,-1,-1,-1,-1,-1,-1,-1,-1,-1,-1,-1,-1,-1,-1,-1,-1,-1,-1,-1,-1,-1,-1,-1,-1,-1,-1,-1,-1,-1,-1,-1,-1,-1,-1,-1,-1,-1],"split_conditions":[6.0499996E-1,5E-3,5.8199997E0,1.5E1,1.9E1,1.9E1,2.4E1,1E0,6.357143E-2,1.8499999E-1,4.3665123E-1,2E1,2.145E0,1.9E1,1.7329998E1,-9.725E1,4.53E0,3.605E-1,1E0,1.1E-1,9.994074E-1,-5.197438E-1,-9.715E1,9.998518E-1,-3.6572254E-1,7.0252746E-1,5E0,2.7609697E-1,1E0,7.0252746E-1,7.0252746E-1,5E-3,8.695894E-1,9.998518E-1,3.1E1,-9.837093E-1,-9.990741E-1,6.665E1,-9.735E1,2.0125E1,2E1,7.935716E-1,3.1E1,-9.735E1,-1.6705163E-1,7E-2,8.281427E0,8E0,7.3050004E-1,2.5E1,2.2999999E-1,-7.206671E-1,-9.725E1,1.8499999E-1,8E0,4.4519993E1,2.3815E1,7.2035723E0,-9.725E1,-5.4884297E-1,1E1,6.648554E-1,5.8774994E1,2.9E1,-1.500554E-1,3E1,9.998518E-1,-9.825E1,4.54E0,-9.815E1,-9.695E1,7E-3,-9.051932E-1,3E1,8.5207754E-1,-8.653073E-1,-9.9552137E-1,5.9666667E-2,3.1E1,1.7E1,2.9E1,1E1,2.9E1,7.829801E-1,2E0,1E0,2.655E1,3.1E1,-9.866579E-1,6E0,3E0,1.0787857E1,2.5E1,3.283333E-2,1.3149998E0,8.23923E-1,6.648554E-1,2.635E1,2.0785713E-1,1.5E-2,-4.2889193E-1,3.0429996E1,5E-3,-9.9167734E-1,-1.6705163E-1,3.0642858E-1,1.1E1,4E1,1.174357E1,1.9934999E0,-9.990741E-1,-1.6705163E-1,-8.82048E-1,4.0542573E-1,1.1E1,-3.008198E-1,-8.475409E-1,2.615E1,3.2155E1,-8.900276E-1,3.9E1,8.779601E-1,2.8775005E1,-8.900276E-1,1.2E1,7.0064282E0,8.0392796E-1,-5.3007854E-3,-3.6964593E-3,1.4182089E-2,-4.579575E-3,-4.3002386E-3,-1.5856609E-3,-2.8604975E-3,4.9553416E-3,2.1083953E-3,2.110929E-2,-4.3651247E-3,9.777192E-3,5.11318E-2,6.1353177E-2,-6.0798344E-3,1.7446263E-2,3.4630567E-2,-2.1116647E-3,-5.898457E-3,-4.345566E-3,-2.9453442E-3,1.2668807E-2,-3.2123628E-3,-4.5436886E-3,-3.0486109E-3,-1.6769498E-3,3.212949E-2,2.559412E-3,-5.909575E-4,-5.2358317E-3,-3.3319432E-3,1.0554548E-2,-1.0280146E-3,-2.1600078E-3,1.1237133E-3,3.1775594E-2,-1.4707736E-4,2.3372301E-3,-2.0785076E-3,5.595519E-4,2.2254025E-3,3.97564E-2,1.2219465E-2,-1.9843855E-3,1.9570004E-2,5.7631858E-2,-5.1000286E-3,6.8261777E-3,4.956868E-3,1.5336449E-3,5.0335126E-3,5.912218E-4,1.2873356E-2,7.817613E-3,-1.7376058E-3,3.8696963E-3,-1.8794755E-3,5.093092E-3,1.3834708E-3,-1.900719E-3,1.7336756E-2,1.8922864E-3,1.2754353E-2,-4.06634E-3,-6.9176464E-4,6.2329094E-3,7.690652E-3,3.6654852E-3,1.8969344E-3,2.7894668E-2,4.127499E-3,3.240973E-2,9.189269E-3,4.0922254E-2,7.4690985E-3,-1.064921E-3,-1.6154728E-3,1.9168245E-2,-4.441515E-4,1.2054849E-2,9.874551E-3,4.831477E-3,1.0152658E-2,6.37688E-3,3.851393E-3,8.246029E-4,1.1900732E-2,5.980205E-3,1.5759476E-2,6.9219302E-3,1.7135624E-2,4.2901177E-2,9.862316E-3,2.8250709E-3,2.6891805E-2,1.0532113E-2,8.985115E-3,1.4643366E-3,5.116288E-2,-4.838938E-3,2.0130705E-2,1.13509605E-2,3.189257E-2,1.8605689E-2,7.515341E-3,1.5436987E-3,2.683174E-2,-2.5264632E-3,4.2394318E-2,5.53876E-2,2.2217968E-2,3.58878E-2,1.7312989E-2,8.8804625E-3,2.2269487E-2,1.5973026E-2,6.209503E-2,1.8025368E-2,8.08404E-3,2.4917275E-2,2.7234184E-2,2.1891186E-2,7.632214E-2,3.730359E-2,1.8807137E-2,6.82221E-3,4.0580105E-2,1.11645125E-2],"split_indices":[8,8,8,7,7,7,7,